/*
 * Copyright (c) 2025 EdgeImpulse Inc.
 *
 * Generated by Edge Impulse and licensed under the applicable Edge Impulse
 * Terms of Service. Community and Professional Terms of Service
 * (https://edgeimpulse.com/legal/terms-of-service) or Enterprise Terms of
 * Service (https://edgeimpulse.com/legal/enterprise-terms-of-service),
 * according to your product plan subscription (the “License”).
 *
 * This software, documentation and other associated files (collectively referred
 * to as the “Software”) is a single SDK variation generated by the Edge Impulse
 * platform and requires an active paid Edge Impulse subscription to use this
 * Software for any purpose.
 *
 * You may NOT use this Software unless you have an active Edge Impulse subscription
 * that meets the eligibility requirements for the applicable License, subject to
 * your full and continued compliance with the terms and conditions of the License,
 * including without limitation any usage restrictions under the applicable License.
 *
 * If you do not have an active Edge Impulse product plan subscription, or if use
 * of this Software exceeds the usage limitations of your Edge Impulse product plan
 * subscription, you are not permitted to use this Software and must immediately
 * delete and erase all copies of this Software within your control or possession.
 * Edge Impulse reserves all rights and remedies available to enforce its rights.
 *
 * Unless required by applicable law or agreed to in writing, the Software is
 * distributed on an "AS IS" BASIS, WITHOUT WARRANTIES OR CONDITIONS OF ANY KIND,
 * either express or implied. See the License for the specific language governing
 * permissions, disclaimers and limitations under the License.
 */
// Generated on: 26.02.2025 12:55:29

#include <stdio.h>
#include <stdlib.h>
#include "edge-impulse-sdk/tensorflow/lite/c/builtin_op_data.h"
#include "edge-impulse-sdk/tensorflow/lite/c/common.h"
#include "edge-impulse-sdk/tensorflow/lite/micro/micro_mutable_op_resolver.h"
#include "edge-impulse-sdk/porting/ei_classifier_porting.h"

#if EI_CLASSIFIER_PRINT_STATE
#if defined(__cplusplus) && EI_C_LINKAGE == 1
extern "C" {
    extern void ei_printf(const char *format, ...);
}
#else
extern void ei_printf(const char *format, ...);
#endif
#endif

#define STRINGIZE(x) #x
#define STRINGIZE_VALUE_OF(x) STRINGIZE(x)

#if defined (__GNUC__)  /* GNU compiler */
#define ALIGN(X) __attribute__((aligned(X)))
#define DEFINE_SECTION(x) __attribute__((section(x)))
#elif defined (_MSC_VER)
#define ALIGN(X) __declspec(align(X))
#elif defined (__TASKING__) /* TASKING Compiler */
#define ALIGN(X) __align(X)
#define DEFINE_SECTION(x) __attribute__((section(x)))
#elif defined (__ARMCC_VERSION) /* Arm Compiler */
#define ALIGN(X) __ALIGNED(x)
#define DEFINE_SECTION(x) __attribute__((section(x)))
#elif defined (__ICCARM__) /* IAR Compiler */
#define ALIGN(x) __attribute__((aligned(x)))
#define DEFINE_SECTION(x) __attribute__((section(x)))
#elif defined (__clang__) /* LLVM/Clang Compiler */
#define ALIGN(X) __ALIGNED(x)
#define DEFINE_SECTION(x) __attribute__((section(x)))
#endif

#if defined(EI_MODEL_SECTION) && (defined(__GNUC__) || defined(__clang__))
#define MODEL_SECTION(X) __attribute__((section(STRINGIZE_VALUE_OF(X))))
#else
#define MODEL_SECTION(X)
#endif

#ifndef EI_MAX_SCRATCH_BUFFER_COUNT
#ifndef CONFIG_IDF_TARGET_ESP32S3
#define EI_MAX_SCRATCH_BUFFER_COUNT 14
#else
#define EI_MAX_SCRATCH_BUFFER_COUNT 28
#endif // CONFIG_IDF_TARGET_ESP32S3
#endif // EI_MAX_SCRATCH_BUFFER_COUNT

#ifndef EI_MAX_OVERFLOW_BUFFER_COUNT
#define EI_MAX_OVERFLOW_BUFFER_COUNT 10
#endif // EI_MAX_OVERFLOW_BUFFER_COUNT

using namespace tflite;
using namespace tflite::ops;
using namespace tflite::ops::micro;

namespace {

#if defined(EI_CLASSIFIER_ALLOCATION_STATIC_HIMAX) || defined(EI_CLASSIFIER_ALLOCATION_STATIC_HIMAX_GNU)
constexpr int kTensorArenaSize = 242640;
#else
constexpr int kTensorArenaSize = 241616;
#endif

#if defined(EI_CLASSIFIER_ALLOCATION_STATIC)
#if defined (EI_TENSOR_ARENA_LOCATION)
uint8_t tensor_arena[kTensorArenaSize] ALIGN(16) DEFINE_SECTION(STRINGIZE_VALUE_OF(EI_TENSOR_ARENA_LOCATION));
#else
uint8_t tensor_arena[kTensorArenaSize] ALIGN(16);
#endif
#elif defined(EI_CLASSIFIER_ALLOCATION_STATIC_HIMAX)
#pragma Bss(".tensor_arena")
uint8_t tensor_arena[kTensorArenaSize] ALIGN(16);
#pragma Bss()
#elif defined(EI_CLASSIFIER_ALLOCATION_STATIC_HIMAX_GNU)
uint8_t tensor_arena[kTensorArenaSize] ALIGN(16) __attribute__((section(".tensor_arena")));
#else
#define EI_CLASSIFIER_ALLOCATION_HEAP 1
uint8_t* tensor_arena = NULL;
#endif

static uint8_t* tensor_boundary;
static uint8_t* current_location;

template <int SZ, class T> struct TfArray {
  int sz; T elem[SZ];
};

enum used_operators_e {
  OP_CONV_2D, OP_DEPTHWISE_CONV_2D, OP_PAD, OP_ADD, OP_SOFTMAX,  OP_LAST
};

struct TensorInfo_t { // subset of TfLiteTensor used for initialization from constant memory
  TfLiteAllocationType allocation_type;
  TfLiteType type;
  void* data;
  TfLiteIntArray* dims;
  size_t bytes;
  TfLiteQuantization quantization;
};

typedef struct {
  TfLiteTensor tensor;
  int16_t index;
} TfLiteTensorWithIndex;

typedef struct {
  TfLiteEvalTensor tensor;
  int16_t index;
} TfLiteEvalTensorWithIndex;

TfLiteContext ctx{};
static const int MAX_TFL_TENSOR_COUNT = 4;
static TfLiteTensorWithIndex tflTensors[MAX_TFL_TENSOR_COUNT];
static const int MAX_TFL_EVAL_COUNT = 4;
static TfLiteEvalTensorWithIndex tflEvalTensors[MAX_TFL_EVAL_COUNT];
TfLiteRegistration registrations[OP_LAST];

namespace g0 {
const TfArray<4, int> tensor_dimension0 = { 4, { 1,96,96,3 } };
const TfArray<1, float> quant0_scale = { 1, { 0.0039215688593685627, } };
const TfArray<1, int> quant0_zero = { 1, { -128 } };
const TfLiteAffineQuantization quant0 = { (TfLiteFloatArray*)&quant0_scale, (TfLiteIntArray*)&quant0_zero, 0 };
const MODEL_SECTION(EI_MODEL_SECTION) ALIGN(16) int32_t tensor_data1[4*2] = { 
  0, 0, 
  0, 1, 
  0, 1, 
  0, 0, 
};
const TfArray<2, int> tensor_dimension1 = { 2, { 4,2 } };
const MODEL_SECTION(EI_MODEL_SECTION) ALIGN(8) int32_t tensor_data2[2] = { 18420, -23992, };
const TfArray<1, int> tensor_dimension2 = { 1, { 2 } };
const TfArray<2, float> quant2_scale = { 2, { 0.00022224072017706931, 0.00016853761917445809, } };
const TfArray<2, int> quant2_zero = { 2, { 0,0 } };
const TfLiteAffineQuantization quant2 = { (TfLiteFloatArray*)&quant2_scale, (TfLiteIntArray*)&quant2_zero, 0 };
const MODEL_SECTION(EI_MODEL_SECTION) ALIGN(16) int8_t tensor_data3[2*1*1*32] = { 
  /* [0][0][][] */ 48,-36,-44,90,-63,-3,-32,66,127,-20,-19,-42,-28,52,-46,37,87,-100,-37,-80,83,69,59,-49,-58,-96,-11,61,18,-38,-16,52, 
  /* [1][0][][] */ 59,84,83,-71,-82,86,-9,14,-48,-21,40,120,127,50,51,0,-46,5,-69,-100,-86,38,37,120,88,87,-53,-5,113,-120,-113,-19, 
};
const TfArray<4, int> tensor_dimension3 = { 4, { 2,1,1,32 } };
const TfArray<2, float> quant3_scale = { 2, { 0.0042081135325133801, 0.0031912487465888262, } };
const TfArray<2, int> quant3_zero = { 2, { 0,0 } };
const TfLiteAffineQuantization quant3 = { (TfLiteFloatArray*)&quant3_scale, (TfLiteIntArray*)&quant3_zero, 0 };
const MODEL_SECTION(EI_MODEL_SECTION) ALIGN(16) int32_t tensor_data4[32] = { -93, 174, 160, -211, -436, 224, -446, 277, 28, -315, 87, 105, 172, 204, 42, -258, -135, -305, -228, -374, -249, 194, 5, 73, -184, -44, -278, -323, 24, -124, -226, -316, };
const TfArray<1, int> tensor_dimension4 = { 1, { 32 } };
const TfArray<32, float> quant4_scale = { 32, { 4.1008617699844763e-05, 4.3976182496408001e-05, 4.1960836824728176e-05, 4.0823608287610114e-05, 4.27994855272118e-05, 4.0753671783022583e-05, 4.2872601625276729e-05, 4.5785844122292474e-05, 4.374836862552911e-05, 4.5333086745813489e-05, 4.6363566070795059e-05, 4.2990657675545663e-05, 4.437630923348479e-05, 4.2923056753352284e-05, 4.5553068048320711e-05, 4.1843177314149216e-05, 4.0712660847930238e-05, 7.583190017612651e-05, 6.5807435021270066e-05, 4.120168523513712e-05, 4.7541707317577675e-05, 4.1430015699006617e-05, 4.0938484744401649e-05, 4.5438613597070798e-05, 4.2139658035011962e-05, 4.4952805183129385e-05, 4.2303337977500632e-05, 3.9917918911669403e-05, 4.5595945266541094e-05, 3.9927948819240555e-05, 4.8156089178519323e-05, 4.311012162361294e-05, } };
const TfArray<32, int> quant4_zero = { 32, { 0,0,0,0,0,0,0,0,0,0,0,0,0,0,0,0,0,0,0,0,0,0,0,0,0,0,0,0,0,0,0,0 } };
const TfLiteAffineQuantization quant4 = { (TfLiteFloatArray*)&quant4_scale, (TfLiteIntArray*)&quant4_zero, 0 };
const MODEL_SECTION(EI_MODEL_SECTION) ALIGN(16) int8_t tensor_data5[32*1*1*96] = { 
  /* [0][0][][] */ -45,-56,107,8,98,-12,-95,-113,61,-111,-118,-4,61,6,-42,51,-61,-36,-62,-68,-76,-113,0,112,-121,9,79,-52,113,13,-26,-86,87,-68,-101,66,-118,-88,-107,24,75,-94,-106,102,52,-116,109,-25,17,-51,-39,101,-80,-54,-100,109,22,55,102,-120,-82,81,-60,41,-7,15,70,90,49,97,81,-127,97,-113,36,86,-101,10,-66,25,55,12,99,-7,-64,-49,-95,110,29,120,-6,-122,10,72,33,16, 
  /* [1][0][][] */ -51,34,-72,3,-24,82,41,16,85,-92,-97,111,77,-15,28,69,110,-36,48,127,-38,-3,39,31,37,22,-32,102,13,10,105,-53,61,111,-11,32,52,66,-7,-58,-55,12,-17,-91,-32,44,-23,-51,-21,-71,97,70,12,93,-71,-41,29,98,35,85,-52,112,-57,-80,-38,43,76,44,107,35,22,18,-114,99,-52,48,94,-43,-36,62,-72,87,-40,-101,34,119,-63,-54,86,86,92,30,93,100,36,1, 
  /* [2][0][][] */ 52,40,-66,101,-6,-60,94,105,-97,96,-32,125,105,-5,87,-109,-56,-23,48,68,-92,-14,117,25,-22,85,115,6,-68,86,89,108,-69,-11,-98,-106,-88,102,116,-23,-115,-73,19,-3,-84,127,-21,-77,104,53,76,-78,-47,76,28,25,-70,98,-95,8,-15,59,-29,69,114,55,50,93,-93,76,13,-66,29,-67,27,30,-42,-24,9,0,45,-95,0,-29,7,-95,-16,-22,101,122,-26,12,-35,-74,-38,-63, 
  /* [3][0][][] */ 73,-3,39,-23,-72,53,-120,42,51,18,68,-2,95,98,75,4,107,100,-61,13,119,-94,-72,-123,-28,-123,-91,111,47,-107,87,5,-59,-39,-16,-19,-100,-29,49,60,-30,-101,-108,-2,75,27,-54,-89,71,-86,41,-5,102,28,94,-109,-124,-126,-122,-65,-106,33,-38,73,57,-38,-66,-7,-36,-79,4,102,24,-115,56,-54,33,101,101,-69,-98,-127,36,95,27,45,-49,-127,-90,45,3,-117,93,-103,-98,39, 
  /* [4][0][][] */ 44,95,-10,45,-34,-30,22,10,53,84,-17,42,27,-46,-20,-76,-34,-13,-69,7,100,-100,77,18,-28,-14,54,-69,-58,28,-75,-60,56,107,9,-108,-59,-14,-118,38,-57,-71,-79,-98,27,99,28,49,12,-48,-25,-84,-95,39,-92,13,30,-101,24,4,2,-80,-47,-75,-52,47,-7,-47,19,-106,-105,-94,-61,12,95,44,52,-31,-17,-65,-3,-51,-105,-29,-8,60,81,-7,-127,-81,37,39,20,90,-104,-22, 
  /* [5][0][][] */ 105,-93,80,91,59,-117,33,66,116,-110,3,-62,36,114,41,44,69,69,-63,113,40,57,23,-23,-103,-64,-8,-98,55,36,25,-94,-37,11,-76,23,-118,-33,56,28,-88,-49,48,106,-34,32,41,-51,-110,127,7,45,42,26,43,-18,115,53,-89,-37,35,-68,46,-78,-14,114,-26,33,81,8,114,-66,-53,88,-33,-73,23,-48,17,76,119,47,39,126,-79,90,-1,50,80,-98,125,98,-10,39,85,-81, 
  /* [6][0][][] */ 12,-51,105,65,-92,-67,-10,57,-23,-87,-1,-94,80,48,108,-127,35,-5,-7,97,-85,-126,102,52,-68,-89,-15,-64,-34,-120,40,-82,-98,-126,-54,-111,-16,33,-120,73,80,49,16,-23,-119,98,-94,-53,-92,11,-33,-72,51,-60,88,-32,3,-14,-77,106,-103,-3,62,-75,-59,59,93,-57,73,-12,-114,-12,45,-73,-95,-49,-88,-108,-64,-36,27,-39,37,-34,-78,-92,-47,-102,77,87,87,13,-58,-72,69,-34, 
  /* [7][0][][] */ 100,65,-29,-38,-70,113,-11,4,113,9,-84,17,54,-76,49,76,56,22,11,105,54,40,1,88,-53,97,45,55,-67,109,-15,34,31,28,67,94,-92,87,-4,-19,95,-67,83,72,53,3,100,-98,57,-39,-127,-57,-19,79,27,26,113,-87,-2,-49,1,-5,82,-106,-57,-45,71,25,-104,18,67,82,89,15,57,63,-46,58,-86,35,91,-28,-19,-65,88,37,-100,94,79,14,86,54,-55,-29,-1,-61, 
  /* [8][0][][] */ 0,33,-33,-96,38,26,-74,-28,0,28,42,77,-27,-53,-82,-74,-67,91,-79,7,19,-21,81,108,-108,94,37,80,-74,9,-96,104,90,-40,55,-7,118,0,-29,68,77,96,-112,-114,-7,-34,-28,107,20,-126,-58,-14,-66,-23,-31,-116,47,99,-65,102,105,42,37,109,-46,-52,-17,97,-95,41,25,-13,83,63,18,26,-56,108,80,85,29,81,-127,-99,22,39,69,-53,24,-41,-83,91,-93,-111,-56,55, 
  /* [9][0][][] */ -2,10,106,40,105,-115,-56,-118,41,58,-16,59,-13,-71,-104,-21,-4,-4,-104,-50,-9,89,-109,-114,116,-4,-18,24,0,-43,-85,90,56,-2,19,-14,-76,11,-21,-45,41,-63,47,-89,78,23,-104,50,50,11,-44,-52,63,-70,-71,95,72,-45,32,-8,-66,107,82,-71,-75,-2,93,44,7,88,85,-64,8,77,-107,-95,-93,-121,-44,116,28,54,88,29,-46,-98,37,-19,87,22,-35,106,127,-5,50,-45, 
  /* [10][0][][] */ -54,77,81,-60,-4,98,102,33,38,37,24,-56,106,85,-31,14,-30,77,-80,-49,-11,27,55,-62,29,52,-101,-109,-42,79,-80,-67,80,100,105,72,-38,9,-24,35,-30,111,-100,-33,-92,-48,0,-55,-1,19,19,22,58,29,-56,-28,-94,-14,0,-39,-2,73,109,36,127,-64,-91,-19,25,-13,-84,-56,75,64,-83,100,-2,60,64,8,77,1,62,108,-89,67,96,-14,41,12,-4,-61,-39,-35,-34,-57, 
  /* [11][0][][] */ 109,14,-11,106,127,62,55,35,112,103,-79,120,8,-83,28,-64,-51,-103,87,20,36,76,28,-105,-108,-110,-14,79,88,-3,28,-11,-84,-67,49,52,-56,70,-26,-65,-31,105,-80,9,-44,-60,-103,-89,82,125,84,55,-77,-91,24,18,-53,-63,-45,-86,-89,92,82,6,30,93,-55,21,62,55,-72,-75,39,101,-102,56,-46,38,-42,78,-100,-31,-66,-37,49,-81,11,-18,-88,-5,20,-110,-96,-39,-73,-41, 
  /* [12][0][][] */ 16,68,-55,6,98,11,-29,42,-68,66,-9,21,-30,23,50,-70,-92,-27,-33,-68,33,-7,20,99,-60,-45,106,-98,93,18,-27,123,-81,-58,-48,19,-1,-66,-9,47,117,44,-102,-35,-18,-73,-32,117,-40,-98,-90,114,37,12,-73,89,-17,-55,28,70,59,109,3,51,127,41,-42,118,59,105,45,77,78,118,-19,-3,-21,37,-108,-103,-48,103,55,27,-28,36,57,122,-82,-98,90,46,108,-4,37,79, 
  /* [13][0][][] */ 110,-58,104,101,105,116,86,71,78,-96,17,-24,100,82,71,-41,-113,-65,-61,36,74,-24,123,-42,-56,42,14,17,-86,-88,90,46,45,112,-21,40,-81,-24,32,75,-58,83,-48,17,-40,35,3,-26,39,106,-55,-95,-99,36,108,-77,-45,28,-51,-69,-27,113,-69,13,-36,-55,-89,91,-35,-8,102,4,-91,41,-81,-38,-92,72,87,-69,59,-92,102,31,-76,-96,97,127,-4,-45,-78,56,120,-42,74,0, 
  /* [14][0][][] */ -63,-88,86,83,85,-13,-10,-127,-53,-4,57,112,-11,-79,-89,-63,-42,-41,40,21,-31,34,2,62,-90,-71,-10,43,-84,-89,-77,33,104,-21,-31,12,102,104,18,-112,-12,-100,30,81,63,-113,56,-80,115,85,51,60,116,-13,-13,13,-30,15,43,98,-20,-54,-47,66,-92,2,78,-106,-93,-79,-63,74,18,80,39,-63,67,-97,58,32,59,-20,-104,-38,-103,-100,-106,116,111,15,100,-73,61,99,6,66, 
  /* [15][0][][] */ 11,-35,-33,78,85,-98,60,-104,62,-6,-75,10,108,-1,-95,-115,87,8,-99,15,43,17,71,108,81,69,37,90,20,61,64,-107,-3,4,-68,-12,-73,112,115,-74,13,112,-50,-30,24,-83,-46,-85,-13,-79,1,27,-104,-108,-58,-12,63,48,-52,109,-51,-73,-7,104,-46,97,-76,-5,-62,7,55,-79,14,-18,53,-114,-6,53,105,77,-88,59,-119,-68,-127,-43,-96,36,82,68,-125,-41,52,108,-113,114, 
  /* [16][0][][] */ -81,-1,115,-69,27,117,-59,34,47,42,-116,68,-30,-62,-57,-67,112,81,64,54,109,84,-42,53,-35,55,-80,73,-107,11,34,-1,-108,72,66,57,-35,52,-59,-75,19,-53,71,94,66,101,102,-14,-59,-127,19,103,-42,108,67,39,28,92,107,11,117,118,29,69,37,7,-37,96,41,95,-36,-18,41,84,73,93,-23,104,-117,-2,8,-87,49,-3,7,102,104,-1,72,9,-10,109,60,-43,-98,20, 
  /* [17][0][][] */ 74,-16,-21,63,21,-28,-45,7,39,2,44,59,100,65,-66,23,21,15,80,127,-17,-27,8,-27,-25,54,-19,25,68,-34,23,108,-36,28,-11,81,-51,59,-5,-13,-58,-12,18,-30,-25,28,61,-84,26,69,17,56,4,107,25,11,-67,72,-108,-53,58,-42,59,66,21,-17,-1,-40,-24,46,76,50,-45,8,-33,18,82,-45,18,-66,33,-31,13,-3,-44,55,59,12,57,29,-37,-8,49,76,48,44, 
  /* [18][0][][] */ -63,59,63,-45,14,-55,-70,-1,-8,41,-70,-37,-30,19,35,-44,8,-20,45,76,63,-36,9,-56,18,-44,-14,64,15,71,-3,27,23,-20,-37,-75,-28,23,-25,43,-28,-4,-34,-11,-79,8,18,-10,5,-5,67,22,-76,-6,-4,58,-30,24,69,-81,55,63,7,21,-44,-81,-26,66,101,-47,-55,69,-61,-21,-62,-74,36,30,-6,-53,-44,-4,-18,-45,61,-25,44,45,-73,-51,-51,94,60,-23,127,30, 
  /* [19][0][][] */ 14,27,75,35,62,-91,95,89,93,-69,25,-15,-101,30,-62,58,71,-112,111,55,-27,78,-62,9,78,-88,26,-72,-98,-127,-72,44,80,-90,27,-4,5,-76,-63,-108,41,-124,-90,6,-93,26,74,-101,-32,35,-45,42,-37,10,3,-14,21,98,29,-33,53,-59,99,62,-77,-7,-32,-5,-14,52,74,-56,-68,-127,-60,-86,-28,-121,11,108,56,-122,-35,76,-94,-12,4,-8,88,26,-7,63,-39,112,68,-53, 
  /* [20][0][][] */ -15,61,62,78,-72,86,13,48,8,5,-82,-7,-13,71,33,-70,-48,-37,-69,-33,15,-43,-71,-67,67,-71,-100,42,14,5,-42,95,90,34,-16,47,36,-33,-21,-101,-79,-36,-84,-94,-27,-64,-67,92,53,-127,-98,28,39,93,43,-5,83,62,98,77,94,-52,-64,-35,-38,-65,-48,9,-80,-73,-63,64,-58,-82,32,15,91,68,94,100,72,-2,69,-30,49,100,-18,59,12,81,22,54,13,15,-11,1, 
  /* [21][0][][] */ 97,75,74,-102,105,-86,80,26,-2,-61,-70,48,12,48,-50,-89,-105,-31,39,-16,114,-49,77,-81,64,-88,-28,73,19,14,-2,-17,4,28,-90,-119,117,104,-108,-30,-4,10,31,-10,-104,-79,-80,99,-24,-52,-25,103,38,76,-88,25,-53,50,-75,127,54,-80,20,-18,97,39,-35,-71,-114,-1,65,82,37,-23,67,72,-101,-28,69,92,17,110,39,-65,30,-96,69,-79,-105,88,114,-116,-43,-60,78,-30, 
  /* [22][0][][] */ 36,-58,-83,-109,87,-49,116,65,-102,97,-78,-112,109,-117,-118,-94,42,89,-116,-49,96,-78,32,35,90,-4,-119,97,-57,-78,-68,-111,53,65,16,13,1,-13,-57,-121,5,-14,1,101,62,-122,100,-20,-64,-84,-1,-13,-70,-96,-42,42,-8,-38,-26,-35,114,-81,-73,-127,-65,22,-121,-48,124,108,-32,-2,-80,11,71,-100,54,-56,69,95,115,-113,-77,-123,85,92,99,-32,-55,38,-66,65,23,27,-27,102, 
  /* [23][0][][] */ 61,-88,-2,57,103,-106,6,-95,55,-70,83,78,30,-92,18,-36,83,-30,-89,107,93,-78,98,-31,-14,-11,85,13,66,45,71,-25,-35,47,17,29,89,-3,-107,8,-96,2,11,-105,-67,-81,111,24,72,-91,-127,-38,74,-49,-44,91,-83,-21,79,43,-109,-90,-42,-15,57,41,-112,-101,60,-10,108,-63,-12,-25,-47,-92,54,-22,90,97,-47,-48,30,-88,91,10,108,-11,-80,45,100,-10,108,-40,-24,84, 
  /* [24][0][][] */ -86,-55,-112,-79,-98,-110,-76,-90,58,113,82,33,107,61,-44,-127,-88,35,21,-58,95,-88,-61,-41,46,-35,68,51,100,45,1,-61,-20,9,46,26,-60,-89,71,-26,-78,-107,101,5,16,-40,42,69,-99,-72,-26,18,68,59,69,-78,-1,73,18,-4,92,-18,40,89,-98,95,-53,-100,-110,49,-62,-31,-44,35,97,99,64,-81,-112,-97,-87,-101,-64,-118,-2,63,-20,-107,25,-113,-2,-80,-20,31,-95,27, 
  /* [25][0][][] */ -89,-53,-75,-16,92,-60,-98,48,42,-95,-43,37,83,-1,-107,-23,-67,58,48,-127,70,77,-13,-52,9,-64,-90,43,84,-75,33,122,77,-105,39,74,96,-65,-19,-22,-86,91,-96,2,87,41,50,31,-106,122,-73,9,51,-22,-47,15,-16,39,-118,69,113,46,42,24,-5,82,-21,-13,-103,6,-22,-113,27,-116,56,22,86,67,16,0,56,44,-37,84,-71,-54,-104,-72,-16,-32,116,23,-108,-3,-8,-70, 
  /* [26][0][][] */ 51,-119,-19,-19,-111,-8,-15,-19,-112,-127,104,87,-86,-57,8,-19,111,26,-86,-77,7,70,97,10,54,61,7,52,8,0,-101,-5,-34,-71,-99,-105,-67,81,-55,106,-105,100,53,30,-74,69,-47,101,-25,14,10,92,14,-59,-7,-114,98,64,76,21,1,-97,58,-18,98,-26,-59,53,-100,74,86,91,83,-101,-89,7,37,-112,-102,20,-34,75,75,-85,76,-4,-51,7,-91,110,11,19,-66,103,45,83, 
  /* [27][0][][] */ 8,4,-72,-112,-126,-79,-80,-23,41,102,35,-120,-18,56,82,-36,64,-22,76,-94,-105,7,-36,-31,-116,44,-120,-8,64,26,-39,-14,61,69,-99,-98,-101,-74,-124,90,-106,14,25,13,101,22,68,105,92,67,63,-85,-98,-96,-12,-42,106,-29,-121,-89,-65,-70,-42,54,39,-55,-125,109,46,6,-127,5,66,-61,-15,-99,46,-76,89,106,85,-30,119,-64,-85,-94,-40,28,-57,-9,-38,-57,55,12,88,55, 
  /* [28][0][][] */ 75,-11,85,43,-127,-72,-93,-75,-43,-114,55,35,-77,-83,4,87,86,100,-71,52,-30,22,-101,-69,-124,77,-83,-54,-76,-75,-2,-25,-102,17,75,59,16,-104,-48,26,93,40,-93,48,-106,-14,10,40,20,-93,-79,-33,-92,21,43,28,45,-18,70,47,-15,-55,-92,2,52,63,-19,74,-88,17,-106,-42,62,17,-9,-92,-107,-58,-83,42,-77,-94,98,-31,55,-107,58,-86,-99,-69,-45,-76,-44,43,-98,-71, 
  /* [29][0][][] */ 48,59,65,-65,-101,15,-127,3,98,-18,-97,-107,99,-117,-52,-52,-105,107,17,-70,-84,-35,60,6,-36,11,-51,-25,-113,-17,106,-10,54,-4,-77,-60,-8,107,-16,99,49,112,-50,90,-3,109,-61,-28,18,-32,68,-107,74,-115,119,47,-100,60,-30,117,-124,107,-102,-50,-72,-73,58,94,94,-94,39,-81,127,76,74,29,116,-64,-34,41,-10,-86,-13,-91,65,124,47,77,-45,100,74,81,-117,12,-8,63, 
  /* [30][0][][] */ 26,-56,-50,38,-80,49,-61,4,99,-15,-2,-5,-103,21,48,41,-14,22,81,-96,36,-93,-106,9,-93,19,-65,127,8,-82,-83,0,-9,-72,-78,-35,37,-20,16,27,73,-70,-14,94,90,-37,87,50,-70,76,47,-94,87,-55,-11,88,-65,-33,-46,-30,-84,11,-65,51,-103,-82,-88,98,-4,96,35,-17,-59,89,27,-68,-36,-70,-70,-44,17,85,-78,-15,-101,27,-62,92,-39,-107,69,43,-27,-6,1,-66, 
  /* [31][0][][] */ 76,-95,34,96,51,57,-64,-103,-34,-22,-83,-92,105,-126,-51,107,-65,-93,42,46,60,32,-34,102,43,-119,31,40,-76,-78,43,106,16,17,-102,-9,94,-35,-69,-115,56,-72,-35,29,2,-57,-44,21,68,28,91,-35,-112,-61,-83,21,-120,67,3,110,-42,-2,82,-76,69,108,-49,-82,66,-127,-120,8,-102,-45,4,3,-61,-50,46,88,-79,-45,53,69,52,92,-98,14,13,-56,-83,-57,6,98,-8,-26, 
};
const TfArray<4, int> tensor_dimension5 = { 4, { 32,1,1,96 } };
const TfArray<32, float> quant5_scale = { 32, { 0.0017428662395104766, 0.0018689876887947321, 0.0017833355814218521, 0.0017350033158436418, 0.0018189781112596393, 0.0017320309998467565, 0.0018220854690298438, 0.0019458982860669494, 0.0018593056593090296, 0.0019266561139374971, 0.00197045155800879, 0.0018271029694005847, 0.0018859931733459234, 0.0018242298392578959, 0.0019360054284334183, 0.001778335077688098, 0.0017302880296483636, 0.0032228557392954826, 0.0027968159411102533, 0.0017510716570541263, 0.0020205224864184856, 0.0017607755726203322, 0.0017398855416104198, 0.0019311410142108798, 0.0017909354064613581, 0.0019104941748082638, 0.0017978918040171266, 0.0016965115210041404, 0.0019378275610506535, 0.0016969378339126706, 0.0020466337446123362, 0.0018321801908314228, } };
const TfArray<32, int> quant5_zero = { 32, { 0,0,0,0,0,0,0,0,0,0,0,0,0,0,0,0,0,0,0,0,0,0,0,0,0,0,0,0,0,0,0,0 } };
const TfLiteAffineQuantization quant5 = { (TfLiteFloatArray*)&quant5_scale, (TfLiteIntArray*)&quant5_zero, 0 };
const MODEL_SECTION(EI_MODEL_SECTION) ALIGN(16) int32_t tensor_data6[96] = { -2466, 3077, 8157, 1727, -3151, -4307, 15106, 1878, 2513, -1130, 8882, -238, -8685, 2071, 16913, 6275, 11768, 4786, -4871, -5615, 4903, 15418, 20838, 16222, 1000, 945, 3615, 2949, 1808, -4317, 6461, -2344, -372, 3499, 49, 878, 10736, 4737, -1386, 4155, 8090, 5975, 4911, 13622, 4231, 3500, 2056, 7209, 4722, -3819, -5197, 484, -417, -899, 2144, 11, 299, -926, -4875, 11811, -1018, 1239, -1292, -1639, -3001, 6546, 13850, 1509, -3651, 847, 1481, 2369, 2126, -1087, 572, 11221, -522, 20756, 11680, -750, 10270, 2039, -401, 1430, 17036, 7611, 4360, 1320, 6115, 3987, -400, -7199, 861, -2564, -1548, -1955, };
const TfArray<1, int> tensor_dimension6 = { 1, { 96 } };
const TfArray<96, float> quant6_scale = { 96, { 0.00024480913998559117, 0.00050930451834574342, 0.00029247705242596567, 0.00051303597865626216, 0.00033404005807824433, 0.00033847769373096526, 0.00022035822621546686, 0.00038414433947764337, 0.00023527283337898552, 0.00059001566842198372, 0.00022149737924337387, 0.00030055368551984429, 0.00028963197837583721, 0.0013683943543583155, 0.00018317911599297076, 0.00018488339264877141, 0.00015562678163405508, 0.00030103616882115602, 0.00039822061080485582, 0.00029845628887414932, 0.00012185842206235975, 0.00017608590133022517, 0.00014755122538190335, 0.00010430920519866049, 0.00018162313790526241, 0.00051208445802330971, 0.00082545483019202948, 0.00036565877962857485, 0.0002910552138928324, 0.00045285493251867592, 0.00022879551397636533, 0.00032924575498327613, 0.00017910098540596664, 0.00033112414530478418, 0.00035051885060966015, 0.00029066848219372332, 0.00017682777252048254, 0.00022515571617987007, 0.00043302818085066974, 0.00042804429540410638, 0.00015829660696908832, 0.00043468159856274724, 0.00030794058693572879, 0.00016993908502627164, 0.00045273019350133836, 0.00028580173966474831, 0.00025070406263694167, 0.00029894959880039096, 0.00028003682382404804, 0.00033134873956441879, 0.00029670135700143874, 0.00022853560221847147, 0.00038568186573684216, 0.00031532850698567927, 0.0003609124687500298, 0.00030263577355071902, 0.00032519162050448358, 0.00031461313483305275, 0.00031654132180847228, 0.00015596656885463744, 0.00076619331957772374, 0.00053472549188882113, 0.00024575591669417918, 0.00048260399489663541, 0.00060947984457015991, 0.00029401184292510152, 0.0001566564169479534, 0.00027024728478863835, 0.00031492003472521901, 0.00039455396472476423, 0.00027516670525074005, 0.00021621465566568077, 0.00063820596551522613, 0.00037265877472236753, 0.00031808580388315022, 0.00019171906751580536, 0.00028165747062303126, 9.0327295765746385e-05, 0.00015434516535606235, 0.0002757434849627316, 0.00014153425581753254, 0.00016557550407014787, 0.00019566083210520446, 0.00018480324069969356, 0.00010618041415000334, 0.00031290313927456737, 0.00053723197197541595, 0.00022186593560036272, 0.00011742565402528271, 0.00051163358148187399, 0.00028465953073464334, 0.00027838174719363451, 0.00026976215303875506, 0.00040970105328597128, 0.00039044793811626732, 0.00020911768660880625, } };
const TfArray<96, int> quant6_zero = { 96, { 0,0,0,0,0,0,0,0,0,0,0,0,0,0,0,0,0,0,0,0,0,0,0,0,0,0,0,0,0,0,0,0,0,0,0,0,0,0,0,0,0,0,0,0,0,0,0,0,0,0,0,0,0,0,0,0,0,0,0,0,0,0,0,0,0,0,0,0,0,0,0,0,0,0,0,0,0,0,0,0,0,0,0,0,0,0,0,0,0,0,0,0,0,0,0,0 } };
const TfLiteAffineQuantization quant6 = { (TfLiteFloatArray*)&quant6_scale, (TfLiteIntArray*)&quant6_zero, 0 };
const MODEL_SECTION(EI_MODEL_SECTION) ALIGN(16) int8_t tensor_data7[96*1*1*16] = { 
  /* [0][0][][] */ -38,127,21,-126,-69,-38,-25,-77,-27,35,-12,57,9,-61,-18,72, 
  /* [1][0][][] */ -28,27,-54,6,-20,2,21,-72,74,58,-53,20,0,5,43,-127, 
  /* [2][0][][] */ -6,14,-41,65,40,44,-48,-48,127,-49,19,34,-22,99,-68,-1, 
  /* [3][0][][] */ 46,-47,16,-89,-18,-45,0,-15,85,25,32,13,-6,30,39,127, 
  /* [4][0][][] */ -96,72,13,34,24,-33,-27,32,-12,29,32,-41,-127,-8,-32,28, 
  /* [5][0][][] */ -6,71,122,11,-1,95,-102,82,-39,68,-8,-15,47,-49,-127,28, 
  /* [6][0][][] */ 33,-43,116,-127,26,-15,-33,80,-86,-68,31,-55,11,79,-6,99, 
  /* [7][0][][] */ 19,127,-38,-58,81,2,2,-56,110,106,-12,-7,23,-29,71,49, 
  /* [8][0][][] */ 20,-86,2,-75,23,-51,30,-67,28,58,74,-11,16,127,69,57, 
  /* [9][0][][] */ 12,-29,6,127,38,4,31,-42,-42,100,12,-11,-11,-55,-9,-12, 
  /* [10][0][][] */ -17,17,-23,-127,-2,-18,-7,1,17,-20,10,-28,-22,-26,15,38, 
  /* [11][0][][] */ -2,19,28,-20,79,-31,75,-63,-90,51,-5,18,5,127,-76,-30, 
  /* [12][0][][] */ 61,-6,-46,21,8,-38,20,34,0,66,-108,-43,-50,127,-28,-15, 
  /* [13][0][][] */ -14,7,-16,4,-2,-127,-6,12,0,-3,-3,-6,14,-14,22,13, 
  /* [14][0][][] */ 27,-15,106,-44,56,-7,-127,-113,-34,-25,7,-4,17,-76,-10,-14, 
  /* [15][0][][] */ -74,0,-17,-60,-15,-40,127,33,-50,30,52,-21,-1,73,94,20, 
  /* [16][0][][] */ 1,46,127,64,7,16,78,55,-92,4,-69,9,-3,28,24,-79, 
  /* [17][0][][] */ -47,-118,-14,42,-77,-15,-69,22,-127,-42,24,-36,-7,49,66,-52, 
  /* [18][0][][] */ 13,59,16,73,34,0,19,-22,61,34,-33,-27,10,127,56,30, 
  /* [19][0][][] */ 26,-42,54,-5,76,17,-127,-55,-117,-76,-70,-123,-18,-53,5,-49, 
  /* [20][0][][] */ 127,-52,-73,-55,47,-94,19,62,-70,50,-124,-49,41,15,29,-7, 
  /* [21][0][][] */ 38,-39,51,3,4,12,-10,75,3,-62,61,42,-13,127,30,46, 
  /* [22][0][][] */ -21,54,-34,127,-67,-7,102,54,-24,51,-30,8,9,-4,20,18, 
  /* [23][0][][] */ 65,6,107,-92,76,-10,-19,37,-1,4,9,-45,2,-34,-127,29, 
  /* [24][0][][] */ -127,32,9,-14,1,122,30,-14,6,10,95,5,-97,25,65,-33, 
  /* [25][0][][] */ 16,15,17,25,21,30,57,-44,9,-127,-12,-7,-9,-24,3,8, 
  /* [26][0][][] */ -32,-2,-7,2,-48,-25,-30,-45,-127,-26,-6,-51,16,127,-24,67, 
  /* [27][0][][] */ -8,23,17,66,39,-20,-27,-21,61,0,-19,6,12,127,-10,9, 
  /* [28][0][][] */ 22,59,46,49,127,-28,41,21,-106,-7,-57,-49,25,87,48,-33, 
  /* [29][0][][] */ -2,-6,9,19,24,-2,6,47,-23,1,-34,-127,11,-11,-15,0, 
  /* [30][0][][] */ -13,81,-45,66,-43,-25,41,-127,-50,60,-28,-14,59,27,66,93, 
  /* [31][0][][] */ -59,-7,-16,-72,-3,17,-66,-115,44,77,1,-127,-36,-48,1,0, 
  /* [32][0][][] */ -127,-71,-1,68,52,52,-18,16,8,-48,-93,60,75,5,63,60, 
  /* [33][0][][] */ -3,-31,-39,-14,-89,-15,-73,3,50,31,0,-62,41,-127,117,41, 
  /* [34][0][][] */ 44,-15,80,33,49,30,-68,96,-83,-69,82,45,6,1,-21,127, 
  /* [35][0][][] */ -58,55,-52,13,-8,-19,24,-127,79,101,-99,-14,3,-10,71,-127, 
  /* [36][0][][] */ -42,38,10,127,36,48,102,40,-3,10,2,8,-22,31,-86,-98, 
  /* [37][0][][] */ -2,-13,-15,-66,10,8,-41,-34,-71,-29,16,2,7,-127,44,-42, 
  /* [38][0][][] */ 40,97,-10,-56,127,-14,41,-49,111,90,-13,-11,14,-36,73,22, 
  /* [39][0][][] */ -31,71,-8,-127,-16,16,-42,50,73,-91,-35,-27,7,89,32,32, 
  /* [40][0][][] */ -11,-34,1,-83,11,23,-9,-13,-127,-22,13,12,-19,-116,109,-101, 
  /* [41][0][][] */ -10,-15,-48,-2,0,-29,28,-3,-22,10,-35,-4,-127,15,2,25, 
  /* [42][0][][] */ 127,62,-50,-37,-62,-49,-18,-58,-1,7,99,-30,-74,53,103,-109, 
  /* [43][0][][] */ -34,110,-110,35,106,47,125,1,96,63,-37,46,20,-123,-127,-110, 
  /* [44][0][][] */ -26,-40,18,-48,66,9,-113,-127,-10,-30,23,30,-27,-28,67,-79, 
  /* [45][0][][] */ -7,38,-127,-24,31,-54,21,-56,19,12,16,-46,13,-11,43,-35, 
  /* [46][0][][] */ 9,11,-7,-86,-23,9,18,-38,-121,-18,-2,1,-9,-127,65,-22, 
  /* [47][0][][] */ 16,48,20,-13,127,-4,-31,19,-46,32,10,29,1,3,104,-32, 
  /* [48][0][][] */ -127,-76,-23,41,66,21,5,-13,5,-18,-107,42,63,7,68,44, 
  /* [49][0][][] */ 15,-7,57,77,118,-26,68,30,-110,-13,-28,-73,9,127,-2,-63, 
  /* [50][0][][] */ 32,-8,-69,6,4,-127,-18,4,-7,-7,-23,-51,29,-12,0,21, 
  /* [51][0][][] */ -9,27,31,8,22,-5,6,17,-97,67,20,-127,18,-97,-1,81, 
  /* [52][0][][] */ -13,75,-26,40,37,-19,35,28,71,104,-17,-71,44,127,79,27, 
  /* [53][0][][] */ -8,-41,-14,-8,-84,-8,-62,5,41,29,-1,-68,33,-127,116,28, 
  /* [54][0][][] */ 42,-1,-43,21,119,97,-127,-28,-59,-18,-20,-58,-3,-39,-36,-46, 
  /* [55][0][][] */ 69,-2,16,7,30,-49,-77,-127,-45,-65,-100,-5,-3,-29,20,-2, 
  /* [56][0][][] */ -19,15,30,-18,-8,-20,-106,74,-5,127,9,-6,30,9,-7,4, 
  /* [57][0][][] */ -16,33,-58,-3,-55,-33,127,101,-14,22,2,8,20,29,97,-23, 
  /* [58][0][][] */ 37,33,-127,47,97,116,-33,59,-107,-27,0,5,-39,21,-15,-28, 
  /* [59][0][][] */ -95,78,99,26,-72,-52,115,127,25,-1,40,-13,12,12,52,-7, 
  /* [60][0][][] */ -2,-7,-70,-4,28,-127,-34,-8,-6,-19,8,-7,31,-11,26,-9, 
  /* [61][0][][] */ 31,-9,25,127,94,17,26,0,-110,3,8,27,1,14,32,-56, 
  /* [62][0][][] */ -58,127,6,-40,-17,2,-62,41,-11,-58,-50,-38,-4,-86,-56,-40, 
  /* [63][0][][] */ -43,19,-31,127,-92,7,-70,-45,-61,-31,-22,-29,27,63,44,48, 
  /* [64][0][][] */ 30,-12,10,37,3,-2,-17,77,10,2,-41,-66,-2,-127,79,9, 
  /* [65][0][][] */ -15,-24,18,-104,29,-40,52,-32,-15,59,-8,-127,-4,-1,13,-35, 
  /* [66][0][][] */ 43,-32,59,-1,6,1,-1,103,20,-95,63,73,-10,127,21,64, 
  /* [67][0][][] */ -6,59,-17,-127,-9,10,-67,46,89,-105,-43,-10,17,84,68,30, 
  /* [68][0][][] */ -33,68,127,5,-5,0,-8,8,-51,-20,-39,-58,13,-44,101,-38, 
  /* [69][0][][] */ 127,107,-14,-18,-98,-43,-21,-48,-7,36,87,-75,-56,46,75,-88, 
  /* [70][0][][] */ 47,3,-67,-21,-39,15,71,127,-45,96,-46,-3,12,56,-27,33, 
  /* [71][0][][] */ 0,-6,-12,-3,16,-74,0,21,-35,12,-65,16,-127,1,51,53, 
  /* [72][0][][] */ 2,22,-127,27,10,43,13,107,-33,-42,25,3,31,19,-30,-17, 
  /* [73][0][][] */ -54,30,40,9,45,-34,-75,-127,22,-63,38,-28,23,-48,33,-13, 
  /* [74][0][][] */ -1,34,32,127,13,2,-71,80,-51,13,-34,58,20,-105,21,-85, 
  /* [75][0][][] */ 0,24,-50,29,23,25,10,-1,127,6,2,14,21,90,-43,-15, 
  /* [76][0][][] */ -2,-7,4,21,0,-10,-21,66,21,-36,-17,-127,-7,-4,2,10, 
  /* [77][0][][] */ -18,9,-1,124,-40,62,70,127,37,24,13,43,-3,-17,-11,-25, 
  /* [78][0][][] */ 2,24,60,-115,35,-28,-36,45,24,-54,11,-49,27,127,27,55, 
  /* [79][0][][] */ -23,-90,-60,-35,-63,10,21,-71,127,21,14,53,22,46,18,-61, 
  /* [80][0][][] */ -50,6,127,-61,29,7,14,-87,-58,31,-26,-90,6,118,95,-68, 
  /* [81][0][][] */ -56,52,-117,28,68,-127,-15,49,-4,-37,65,-13,31,0,13,6, 
  /* [82][0][][] */ 120,-22,-2,9,6,-109,-12,22,-28,-15,-127,-21,93,6,2,38, 
  /* [83][0][][] */ -31,81,-107,-82,-33,-33,38,-127,51,64,-58,-126,12,50,68,106, 
  /* [84][0][][] */ -44,31,76,-42,8,-20,72,-127,-44,31,6,-45,29,60,74,-15, 
  /* [85][0][][] */ -81,127,29,-110,-72,-20,-30,3,-44,-11,-65,32,3,-9,-109,-36, 
  /* [86][0][][] */ -5,24,-39,1,-38,-38,127,29,-2,-29,-11,-5,14,21,76,-6, 
  /* [87][0][][] */ -19,-23,8,-100,-1,-30,43,-7,-11,16,-14,-127,-15,0,7,-27, 
  /* [88][0][][] */ 71,-43,43,-23,14,-127,2,13,-73,31,-124,-63,38,21,108,22, 
  /* [89][0][][] */ 22,-28,-48,-52,32,-7,-33,-3,-39,-3,38,-55,127,-3,23,-49, 
  /* [90][0][][] */ 7,-58,35,-57,66,-12,-51,81,38,-64,-45,-32,0,107,9,-127, 
  /* [91][0][][] */ -38,-12,-18,-31,24,0,-43,-105,14,57,-10,-127,-42,-14,0,2, 
  /* [92][0][][] */ -22,29,44,10,-4,-127,15,-1,-3,-18,-6,-23,7,-32,17,15, 
  /* [93][0][][] */ 30,-16,127,-6,-44,57,23,-24,-14,26,-61,-12,-24,4,29,-2, 
  /* [94][0][][] */ 24,1,-8,-7,21,-9,-2,-6,-33,-12,14,-74,127,-22,31,-23, 
  /* [95][0][][] */ 127,91,0,50,-93,-5,-84,2,-13,-30,104,-31,-49,33,71,-82, 
};
const TfArray<4, int> tensor_dimension7 = { 4, { 96,1,1,16 } };
const TfArray<96, float> quant7_scale = { 96, { 0.00064530858071520925, 0.0013425094075500965, 0.00077095959568396211, 0.0013523453380912542, 0.0008805182296782732, 0.00089221569942310452, 0.00058085680939257145, 0.0010125914122909307, 0.00062017119489610195, 0.0015552613185718656, 0.00058385956799611449, 0.00079224928049370646, 0.00076346006244421005, 0.0036070409696549177, 0.00048285390948876739, 0.00048734634765423834, 0.00041022690129466355, 0.00079352111788466573, 0.0010496960021555424, 0.00078672065865248442, 0.00032121466938406229, 0.00046415644465014338, 0.00038894001045264304, 0.00027495552785694599, 0.00047875242307782173, 0.0013498372863978148, 0.0021758708171546459, 0.00096386409131810069, 0.00076721166260540485, 0.0011937102535739541, 0.00060309719992801547, 0.00086788058979436755, 0.00047210411867126822, 0.00087283202446997166, 0.00092395581305027008, 0.00076619221363216639, 0.00046611198922619224, 0.00059350283117964864, 0.0011414475739002228, 0.001128310221247375, 0.00041726446943357587, 0.0011458059307187796, 0.00081172090722247958, 0.00044795367284677923, 0.001193381380289793, 0.00075336365262046456, 0.00066084740683436394, 0.00078802095958963037, 0.00073816755320876837, 0.00087342405458912253, 0.00078209472121670842, 0.00060241209575906396, 0.0010166442953050137, 0.00083119521150365472, 0.00095135299488902092, 0.00079773762263357639, 0.00085719407070428133, 0.00082930951612070203, 0.00083439215086400509, 0.00041112257167696953, 0.0020196596160531044, 0.0014095182996243238, 0.00064780423417687416, 0.0012721277307718992, 0.0016065681120380759, 0.00077500520274043083, 0.00041294100810773671, 0.00071236264193430543, 0.00083011854439973831, 0.0010400308528915048, 0.00072533008642494678, 0.00056993449106812477, 0.0016822892939671874, 0.00098231586162000895, 0.00083846336929127574, 0.00050536496564745903, 0.00074243952985852957, 0.00023809967387933284, 0.00040684861596673727, 0.00072685047052800655, 0.00037307949969545007, 0.00043645140249282122, 0.00051575532415881753, 0.00048713505384512246, 0.00027988795773126185, 0.00082480203127488494, 0.0014161252183839679, 0.00058483105385676026, 0.00030953003442846239, 0.0013486488023772836, 0.00075035286135971546, 0.00073380483081564307, 0.00071108387783169746, 0.0010799580486491323, 0.001029207487590611, 0.00055122713092714548, } };
const TfArray<96, int> quant7_zero = { 96, { 0,0,0,0,0,0,0,0,0,0,0,0,0,0,0,0,0,0,0,0,0,0,0,0,0,0,0,0,0,0,0,0,0,0,0,0,0,0,0,0,0,0,0,0,0,0,0,0,0,0,0,0,0,0,0,0,0,0,0,0,0,0,0,0,0,0,0,0,0,0,0,0,0,0,0,0,0,0,0,0,0,0,0,0,0,0,0,0,0,0,0,0,0,0,0,0 } };
const TfLiteAffineQuantization quant7 = { (TfLiteFloatArray*)&quant7_scale, (TfLiteIntArray*)&quant7_zero, 0 };
const MODEL_SECTION(EI_MODEL_SECTION) ALIGN(16) int32_t tensor_data8[16] = { -8018, 9795, -7537, -8554, -4942, 12745, 31506, -46377, -4740, 15883, 22703, 11514, -8953, 15047, -9097, 12345, };
const TfArray<1, int> tensor_dimension8 = { 1, { 16 } };
const TfArray<16, float> quant8_scale = { 16, { 0.00072314491262659431, 0.00040779408300295472, 0.00022715653176419437, 0.00024100873270072043, 0.00038145668804645538, 0.00031630040029995143, 0.0002835587365552783, 0.0003403521841391921, 0.00029505189741030335, 0.00027797211077995598, 0.00062617281218990684, 0.00056696910178288817, 0.00044433577568270266, 0.00020291013061068952, 0.00059828901430591941, 0.00053159997332841158, } };
const TfArray<16, int> quant8_zero = { 16, { 0,0,0,0,0,0,0,0,0,0,0,0,0,0,0,0 } };
const TfLiteAffineQuantization quant8 = { (TfLiteFloatArray*)&quant8_scale, (TfLiteIntArray*)&quant8_zero, 0 };
const MODEL_SECTION(EI_MODEL_SECTION) ALIGN(16) int8_t tensor_data9[16*1*1*96] = { 
  /* [0][0][][] */ -11,-16,-3,-30,14,-5,-39,8,22,-4,-21,3,3,-14,-25,1,-7,8,1,6,9,-47,6,0,-2,19,-5,127,19,-40,51,-15,-7,14,10,1,-19,13,-52,-14,-15,7,-3,45,1,18,10,6,21,4,-14,4,10,-16,-23,87,10,11,-34,-29,-8,29,-1,-23,-30,-68,-17,32,3,2,17,-15,-15,-28,-14,-29,-21,25,10,-4,-14,-29,25,14,-14,-19,-2,-96,-8,-16,3,-9,48,-27,-36,-13, 
  /* [1][0][][] */ 52,-57,-94,-55,111,-43,42,47,-12,-73,-55,-31,6,-4,-44,12,-75,14,42,46,8,51,-27,-66,-10,-20,-7,-72,14,-32,-39,21,-13,43,-13,2,17,9,-14,1,-14,33,-33,-49,-32,114,22,6,36,-45,-4,-45,-44,51,44,13,-39,-12,-33,-27,22,-45,2,-43,-92,127,-29,-45,-11,-47,-31,3,70,-102,-49,-6,8,-81,27,17,-1,-35,10,10,-34,34,-37,44,6,-53,23,46,5,-6,52,73, 
  /* [2][0][][] */ 12,41,-96,1,76,59,14,78,6,-122,-13,-30,8,-29,36,-6,6,0,-44,77,7,-21,102,-11,28,41,-4,-54,5,2,50,-74,22,63,-28,41,-127,-64,20,6,14,-48,5,8,-4,-5,3,59,-20,37,-39,-26,78,-4,-23,85,43,18,28,11,17,8,33,-31,29,-24,-35,-38,-64,-25,-19,-38,-22,-69,-18,56,49,23,31,-28,16,-41,-9,-9,-54,5,-14,43,-56,8,-2,-10,-24,-53,-55,-1, 
  /* [3][0][][] */ 21,24,109,-16,38,-6,49,-24,-14,-60,39,-19,-11,51,23,116,30,-14,33,-5,121,9,34,56,53,-23,-5,22,50,25,-11,75,-80,-18,41,1,-16,-27,20,71,-69,-27,66,17,36,15,-37,-64,-60,-31,-4,62,7,-127,19,4,-95,69,29,29,32,88,-18,-24,28,65,11,-8,44,-1,7,-35,36,-16,37,-15,5,13,50,53,-15,-61,32,0,-15,18,43,27,52,21,27,4,57,102,22,-22, 
  /* [4][0][][] */ 19,-9,62,-20,127,34,14,-49,-30,-72,-21,-5,-27,24,-4,49,31,-90,-37,84,-2,5,62,9,0,-7,29,-61,32,-22,62,-28,71,-28,-30,4,43,14,24,45,-40,-3,-41,-12,6,-82,-4,1,38,3,7,24,14,-50,31,-26,-7,6,-50,22,10,60,55,40,47,36,-5,-3,-41,19,47,79,21,-63,-17,-21,26,65,86,-60,-6,-39,16,-15,-73,4,58,47,-38,35,-1,-65,27,14,7,-6, 
  /* [5][0][][] */ -13,-7,-2,-12,23,-2,54,-45,-34,-29,-10,15,-8,44,-14,48,-5,-14,18,-21,45,27,-50,75,24,-25,-7,-104,19,32,-3,39,-10,-15,18,-50,26,12,-1,38,-15,-16,21,-31,3,-38,3,-21,-29,-31,28,0,2,-43,-10,-71,-14,8,-23,10,78,26,-4,39,-7,68,6,117,16,106,19,39,-4,8,5,71,-34,-11,19,21,-5,-19,13,27,-7,27,6,127,17,40,-1,-21,15,17,-68,20, 
  /* [6][0][][] */ 55,-93,22,-41,-41,-5,36,34,21,-33,-22,-90,-20,-12,-24,29,27,6,2,22,-51,11,32,8,-53,20,1,-8,-55,20,73,-16,74,49,63,11,-30,-9,15,-127,-52,95,0,-41,2,0,-27,29,-24,36,-43,44,-17,-48,11,4,14,-58,-2,29,-36,58,43,-95,51,-46,17,-45,-7,4,125,-14,-36,-2,-54,38,-82,10,44,-14,21,44,17,-17,-58,-2,46,16,-3,-11,62,-47,-21,-9,-38,10, 
  /* [7][0][][] */ -19,127,62,11,74,45,54,-15,-12,-37,43,0,-27,33,19,45,14,-30,-1,26,50,-29,12,29,8,10,23,16,28,-18,22,-1,27,-6,-26,14,9,2,5,76,-47,28,23,13,-14,-30,16,-7,-52,-24,40,14,17,-46,-29,15,42,19,-23,4,-7,-39,-19,4,-35,81,1,-47,2,-19,0,61,-31,-24,0,3,44,75,41,-13,-27,-42,-7,-15,-11,43,29,-30,-12,23,-30,-65,-19,5,2,8, 
  /* [8][0][][] */ -24,10,75,26,-127,-22,46,-19,30,107,48,-2,-21,13,26,27,-56,0,9,-11,-46,9,-121,75,25,-62,56,-6,18,-9,-12,55,63,-34,-6,-18,-23,-27,-8,43,15,-10,51,-12,-36,-35,35,4,-105,17,8,28,-66,-29,-58,42,5,-61,-81,-33,20,-30,-49,-7,-6,87,-13,-41,16,-8,-46,-16,13,65,64,-10,-37,-58,-17,15,-76,12,-26,-7,41,22,70,56,36,-39,42,47,11,1,21,2, 
  /* [9][0][][] */ 26,-88,-25,17,78,50,-42,-14,19,-43,71,76,-4,9,79,-127,0,-16,-12,6,-44,-46,53,-10,-35,5,3,23,-33,8,8,-13,24,42,-122,18,-10,28,-45,51,47,-81,1,51,0,-5,-59,-41,41,44,-53,-93,35,23,-17,-40,-11,77,-1,-3,11,-54,-23,115,-89,-12,-16,-25,-4,6,-71,-81,55,8,1,23,39,-84,13,-16,5,-16,5,20,13,-78,13,12,-18,-42,-55,38,-64,-28,-1,-31, 
  /* [10][0][][] */ -67,-24,-38,-44,-26,18,78,-19,40,35,31,41,13,-8,-4,7,-4,18,-34,-24,-11,44,0,29,-7,-22,10,-127,33,-54,59,-38,-5,20,4,-1,6,20,16,2,13,-33,24,-55,10,-4,21,26,-8,39,-29,-9,-41,-19,-18,-65,21,19,-11,-35,33,20,-5,17,-44,106,-12,-17,17,-18,6,-23,-41,-14,21,53,-9,38,-21,22,-23,-1,6,27,18,-23,17,125,8,2,20,3,28,-17,39,-58, 
  /* [11][0][][] */ -101,27,20,-3,17,-33,-7,-9,-45,9,-1,21,13,34,-34,19,50,-3,-64,-65,21,2,-16,12,90,-8,53,12,7,16,-56,27,-9,1,-3,-10,-6,-11,32,29,-12,-1,2,-7,85,-15,66,25,34,23,3,44,6,-63,9,-11,-75,-21,-33,-41,4,-6,-8,20,-12,-18,25,24,29,20,0,36,-43,14,45,7,-16,78,-116,74,-21,-6,-57,-64,127,22,60,-14,24,54,-24,-70,-7,54,-40,-13, 
  /* [12][0][][] */ 7,1,-49,-5,54,16,-10,-8,-19,23,18,3,14,-19,24,-5,-22,-10,13,-23,-7,-29,-38,35,-9,36,-34,78,-26,40,-27,1,-7,34,-3,14,-17,-5,9,-4,3,-21,5,1,-13,1,23,7,4,11,-9,-21,-29,10,-27,-19,-3,-18,15,19,-11,-11,0,34,42,-56,3,34,-31,-127,-7,44,0,5,16,67,-3,-13,-4,3,-6,32,-28,-7,2,-10,-12,-26,-9,18,7,5,-35,4,7,27, 
  /* [13][0][][] */ -55,51,1,-6,-71,3,-2,19,-33,-57,50,34,110,0,-15,-12,-7,42,-43,11,31,-30,88,-47,55,78,19,-3,-8,-26,-8,-103,-94,0,-1,7,-21,30,46,-19,-38,86,-10,35,39,32,-15,13,61,-18,33,67,84,-63,103,-3,-27,74,37,12,2,39,-14,32,21,-44,14,-18,7,29,12,-127,37,-24,-86,17,70,74,-32,-60,77,-29,-7,-45,13,-44,88,6,-42,-17,-8,12,41,-48,-13,27, 
  /* [14][0][][] */ -15,16,-33,-38,33,-18,-39,39,-80,8,12,2,-27,-52,-64,-34,-70,-10,71,10,30,-5,-4,-113,-45,8,-41,-19,-10,-22,9,-38,-51,-21,17,17,-10,12,4,-30,3,76,-54,-25,-38,35,15,10,127,-2,4,-27,26,56,-80,15,2,25,-85,4,7,14,47,15,2,29,-12,-3,-45,16,60,18,35,-4,-40,24,46,-73,-28,-73,15,-28,7,46,34,-56,-56,15,-41,15,24,69,-4,18,34,-14, 
  /* [15][0][][] */ -15,-80,-28,-21,1,-1,-18,-43,-17,8,-11,-24,32,-27,53,-30,-75,10,-18,15,-24,-6,-67,-50,-19,12,-7,13,-35,-8,62,-90,-5,47,9,5,-6,33,-98,-22,31,-64,4,40,-40,-21,47,28,50,24,-30,-127,-9,51,-4,48,36,-3,-8,44,-4,-2,44,-3,10,-19,-11,-35,-27,11,5,26,-28,3,-9,-29,-31,-13,2,1,-11,42,-4,56,-11,-48,-53,-20,-51,46,29,83,-46,-8,13,-13, 
};
const TfArray<4, int> tensor_dimension9 = { 4, { 16,1,1,96 } };
const TfArray<16, float> quant9_scale = { 16, { 0.030733658000826836, 0.01733124814927578, 0.0096541522070765495, 0.010242871008813381, 0.016211908310651779, 0.013442766852676868, 0.012051246128976345, 0.014464967884123325, 0.012539705261588097, 0.011813814751803875, 0.02661234512925148, 0.024096185341477394, 0.018884269520640373, 0.0086236800998449326, 0.025427281856536865, 0.022592999041080475, } };
const TfArray<16, int> quant9_zero = { 16, { 0,0,0,0,0,0,0,0,0,0,0,0,0,0,0,0 } };
const TfLiteAffineQuantization quant9 = { (TfLiteFloatArray*)&quant9_scale, (TfLiteIntArray*)&quant9_zero, 0 };
const MODEL_SECTION(EI_MODEL_SECTION) ALIGN(16) int32_t tensor_data10[96] = { 21362, 63988, -3079, -277, 15948, -7318, -824, -1636, 5910, 14756, -2201, 520, 871, 3356, 5461, -9541, -4273, -262, -749, 13101, -10159, 20213, -3690, 7235, 33489, 161, -3376, 18152, 15475, -19035, 1435, 22284, 22812, -11537, 2226, 79, -1269, 272, 4909, -6144, -4283, -1056, -9771, -104, 29939, -1620, 11798, -1732, -14311, 2288, 2, 606, -2750, 17598, -5065, 12238, 20217, 35, 35134, 1050, -10056, -1411, 1211, 752, -351, 12281, -1955, -7682, -3289, 2562, 17, -3621, 2073, -40, -1969, -6183, -182, -2068, 41317, -8351, -6835, -11086, -1195, -1032, 57838, -14016, -12124, -28241, -8604, 7897, -1579, 36371, -340, -3826, -3452, 785, };
const TfArray<1, int> tensor_dimension10 = { 1, { 96 } };
const TfArray<96, float> quant10_scale = { 96, { 0.00011199685832252726, 8.7717657152097672e-05, 0.00012652232544496655, 0.0002127962070517242, 0.0002077314566122368, 0.00011796344188041985, 7.9475496022496372e-05, 9.6316078270319849e-05, 0.00025810700026340783, 0.00016270315973088145, 0.00031476278672926128, 0.00011613836250035092, 0.00027615242288447917, 0.00021357019431889057, 0.00039990062941797078, 0.00012706068810075521, 0.00022188574075698853, 0.00020857526396866888, 0.00021029920026194304, 9.0161331172566861e-05, 7.4097464676015079e-05, 4.2811945604626089e-05, 0.00015118705050554127, 9.3167342129163444e-05, 8.2843711425084621e-05, 0.00011910374450962991, 0.00018802114936988801, 0.00016439000319223851, 7.3786424763966352e-05, 0.0005193503457121551, 0.00038453500019386411, 0.00021389979519881308, 0.00010828740778379142, 0.00013065172242932022, 0.00026730971876531839, 0.00042554448009468615, 0.00038597898674197495, 0.00026812334544956684, 0.00023582098947372288, 0.0001300125295529142, 0.00023406495165545493, 0.00018309950246475637, 0.00029696233104914427, 8.9529363322071731e-05, 0.0003559720644261688, 0.0001098985958378762, 0.00010367116919951513, 0.00027285754913464189, 0.0008324178634211421, 0.00011802925291704014, 0.00043169243144802749, 0.00015634416195098311, 0.00019960879581049085, 0.00017074232164304703, 0.00016318290727213025, 0.00013618344382848591, 0.00013965291145723313, 0.00044665156747214496, 4.3379357521189377e-05, 0.00016098875494208187, 0.00030873180367052555, 0.00032777240267023444, 0.0001501125079812482, 0.00017496640793979168, 0.00015703332610428333, 0.00016438537568319589, 0.00025729424669407308, 0.00027797458460554481, 0.00021819440007675439, 0.00016073099686764181, 0.00022324231395032257, 9.9204888101667166e-05, 0.000311488431179896, 0.00014260502939578146, 0.00037790712667629123, 0.00030628588865511119, 0.00011885182902915403, 8.7597501988057047e-05, 6.4078158175107092e-05, 0.00014368990377988666, 0.00022396331769414246, 0.00023512345796916634, 0.00016848476661834866, 0.00030697270995005965, 6.0839356592623517e-05, 0.00011079292016802356, 7.8575103543698788e-05, 0.00047753116814419627, 0.00026854604948312044, 0.00012806606537196785, 0.00041563055128790438, 3.0125707780825906e-05, 0.00017262782785110176, 0.00010205629223491997, 0.00032240658765658736, 0.00031726667657494545, } };
const TfArray<96, int> quant10_zero = { 96, { 0,0,0,0,0,0,0,0,0,0,0,0,0,0,0,0,0,0,0,0,0,0,0,0,0,0,0,0,0,0,0,0,0,0,0,0,0,0,0,0,0,0,0,0,0,0,0,0,0,0,0,0,0,0,0,0,0,0,0,0,0,0,0,0,0,0,0,0,0,0,0,0,0,0,0,0,0,0,0,0,0,0,0,0,0,0,0,0,0,0,0,0,0,0,0,0 } };
const TfLiteAffineQuantization quant10 = { (TfLiteFloatArray*)&quant10_scale, (TfLiteIntArray*)&quant10_zero, 0 };
const MODEL_SECTION(EI_MODEL_SECTION) ALIGN(16) int8_t tensor_data11[1*3*3*96] = { 
  /* [0][0][][] */ -46,-73,-10,127,21,75,79,-58,-14,-17,-16,-4,-30,-2,36,0,-7,-42,27,20,22,-127,127,11,-88,13,48,-28,-122,-127,38,26,13,28,59,-20,-30,-9,31,-9,-12,28,-112,75,24,-70,38,48,-18,51,-23,22,5,-8,21,46,-97,-50,-63,-23,-9,3,12,37,67,-26,77,11,-10,16,20,127,23,22,22,1,-10,21,127,-4,-13,16,-27,21,127,19,-68,-16,3,-30,-15,-45,1,-24,-16,26, 127,-127,80,106,-43,127,39,-114,70,4,-19,127,127,-97,-13,12,14,127,127,-113,127,-71,79,75,-125,-103,-67,-33,-57,47,-58,-19,-89,52,-127,-84,-44,-14,-54,68,1,127,127,86,-53,-112,-112,-49,-15,-127,46,82,64,-31,48,81,-49,41,-81,-119,-41,-40,-61,66,71,-62,28,28,-77,34,-17,89,116,127,8,23,1,65,-33,51,66,127,127,-20,-6,73,-105,127,-111,-97,5,-127,-89,-127,-37,104, -75,-13,34,-84,15,-30,66,-7,79,-34,-29,19,-18,-5,-9,-13,-6,-16,6,-6,-19,-101,33,2,-127,99,6,-55,112,50,-13,10,0,21,12,-30,-8,34,17,10,26,13,-126,68,15,-18,37,15,-15,10,-15,7,-6,-3,2,22,-71,5,-33,52,3,41,34,-2,-6,-40,-29,23,4,4,-2,37,8,-25,-2,9,-11,-3,-85,3,-21,-24,-18,4,-112,6,-32,-22,-47,26,-26,-38,29,-27,-13,2, 
  /* [0][1][][] */ -67,-75,75,-35,-48,105,23,127,-52,-24,-1,-121,25,-115,77,37,-5,-60,-16,87,51,-77,45,55,-93,-10,127,-22,-26,63,118,-104,-127,98,-84,-59,-35,31,-28,97,-51,-26,-3,44,-46,127,-23,65,17,93,21,-3,19,-57,33,30,127,123,-73,-91,127,-29,-37,127,68,-39,-14,-2,127,41,127,94,-40,101,-1,13,13,14,-32,9,-42,118,-76,114,4,35,-48,31,82,-127,-32,-7,127,-67,-23,1, 67,124,62,-114,127,82,90,39,-127,127,127,-39,-67,-127,-127,127,127,-63,-123,-52,112,89,-122,127,-108,-90,-43,127,-127,109,-127,-127,-87,127,105,127,127,-127,-107,127,-68,-99,117,-127,-127,-37,-127,-127,127,-112,88,41,127,127,127,-127,99,-127,-127,127,20,-79,-127,-102,-127,127,-127,127,-116,-127,-108,-82,-127,-81,127,127,-127,127,-77,127,127,29,-40,-127,60,127,93,46,127,15,127,2,-66,40,127,-127, -58,-13,-46,39,-55,-106,38,-23,19,-36,-30,92,1,100,13,17,-2,63,-6,124,6,-84,-39,10,-67,99,-74,-20,-76,-18,19,-63,-70,45,5,-20,-27,43,-71,44,127,-4,-42,29,-41,-55,15,45,10,116,-8,5,-31,-76,9,19,95,2,-3,19,-35,127,94,-54,-42,11,34,-9,-76,123,-18,-83,-3,-56,-13,-20,26,18,76,-34,-70,-41,58,17,-47,-18,69,23,17,64,-45,16,-43,100,-26,-3, 
  /* [0][2][][] */ -72,2,-4,-23,13,-41,83,26,53,-29,-36,-6,18,22,-26,6,-9,64,9,3,-57,-76,4,-4,-26,-55,34,-67,85,38,25,23,17,-1,-11,-50,-6,33,-3,0,-18,-6,-69,92,6,32,14,36,-15,-32,11,-20,24,-6,15,13,-73,25,-16,13,17,2,-18,-5,-2,-45,-46,15,-26,14,26,26,12,-21,32,4,16,4,-80,-10,-7,-10,20,15,-123,16,16,-43,-52,-49,-27,-49,13,61,-20,-7, 118,32,-127,-37,-72,-26,48,34,-66,-30,-20,-111,-79,119,-13,42,2,-49,-8,-127,90,-55,-36,4,-112,127,-52,21,-39,-22,-8,-9,-60,25,26,4,-24,-30,127,53,8,-14,69,-32,-37,78,-65,-43,-33,-7,-127,-127,-45,-30,7,38,-70,-6,8,40,-6,-17,12,-49,-54,33,65,-18,113,105,-23,-70,9,-60,12,3,98,4,48,23,14,-99,-46,5,8,21,127,40,-53,40,-20,-112,41,87,-11,27, -60,12,-17,26,15,-74,-127,6,-12,-7,-17,2,15,-20,19,3,-7,-19,6,18,-48,-67,18,6,14,-90,16,4,-52,-40,-5,12,41,-9,-5,-29,-34,2,39,-41,18,-2,-53,-33,3,68,24,17,-8,-5,11,-9,20,-2,2,-4,-64,-12,-2,-42,-11,12,90,-13,35,-3,-1,30,2,5,-3,19,-18,11,6,14,35,1,78,-9,4,-8,-7,-14,76,5,46,-39,58,40,-16,-56,-8,5,-15,-15, 
};
const TfArray<4, int> tensor_dimension11 = { 4, { 1,3,3,96 } };
const TfArray<96, float> quant11_scale = { 96, { 0.0047598662786185741, 0.0037280004471540451, 0.0053771985694766045, 0.0090438388288021088, 0.0088285868987441063, 0.0050134463235735893, 0.0033777086064219475, 0.0040934332646429539, 0.010969547554850578, 0.0069148843176662922, 0.013377418741583824, 0.0049358801916241646, 0.011736477725207806, 0.0090767331421375275, 0.016995776444673538, 0.0054000793024897575, 0.0094301439821720123, 0.0088644484058022499, 0.0089377155527472496, 0.0038318566512316465, 0.0031491422560065985, 0.00181950768455863, 0.0064254496246576309, 0.0039596119895577431, 0.0035208575427532196, 0.0050619090907275677, 0.0079908985644578934, 0.0069865752011537552, 0.0031359230633825064, 0.022072389721870422, 0.016342736780643463, 0.0090907411649823189, 0.0046022147871553898, 0.0055526983924210072, 0.011360662989318371, 0.018085639923810959, 0.016404107213020325, 0.011395242065191269, 0.010022391565144062, 0.0055255326442420483, 0.0099477600306272507, 0.0077817286364734173, 0.012620898894965649, 0.0038049980066716671, 0.015128812752664089, 0.0046706902794539928, 0.0044060247018933296, 0.011596444994211197, 0.035377759486436844, 0.0050162430852651596, 0.018346928060054779, 0.0066446266137063503, 0.0084833735600113869, 0.007256548386067152, 0.0069352732971310616, 0.0057877963408827782, 0.0059352484531700611, 0.018982691690325737, 0.0018436226528137922, 0.0068420218303799629, 0.013121102005243301, 0.013930326327681541, 0.0063797812908887863, 0.0074360719881951809, 0.0066739162430167198, 0.006986378226429224, 0.01093500480055809, 0.011813919991254807, 0.0092732617631554604, 0.0068310671485960484, 0.0094877984374761581, 0.0042162076570093632, 0.013238257728517056, 0.0060607139021158218, 0.016061052680015564, 0.013017149642109871, 0.0050512026064097881, 0.0037228937726467848, 0.0027233217842876911, 0.0061068208888173103, 0.0095184408128261566, 0.0099927466362714767, 0.0071606026031076908, 0.013046340085566044, 0.002585672540590167, 0.0047086989507079124, 0.0033394419588148594, 0.020295074209570885, 0.011413207277655602, 0.0054428079165518284, 0.017664298415184021, 0.0012803425779566169, 0.0073366826400160789, 0.0043373922817409039, 0.013702279888093472, 0.013483833521604538, } };
const TfArray<96, int> quant11_zero = { 96, { 0,0,0,0,0,0,0,0,0,0,0,0,0,0,0,0,0,0,0,0,0,0,0,0,0,0,0,0,0,0,0,0,0,0,0,0,0,0,0,0,0,0,0,0,0,0,0,0,0,0,0,0,0,0,0,0,0,0,0,0,0,0,0,0,0,0,0,0,0,0,0,0,0,0,0,0,0,0,0,0,0,0,0,0,0,0,0,0,0,0,0,0,0,0,0,0 } };
const TfLiteAffineQuantization quant11 = { (TfLiteFloatArray*)&quant11_scale, (TfLiteIntArray*)&quant11_zero, 3 };
const MODEL_SECTION(EI_MODEL_SECTION) ALIGN(16) int32_t tensor_data12[96] = { 1581, 5811, 9269, 30847, 19032, -3242, -2036, 5285, 40686, -3310, 10922, 5915, 6894, 8715, 25942, 1171, 3088, 5922, 12438, 5635, -717, 364, 12230, -1222, 2612, -199, 8153, 7355, 7296, 36433, 36969, 20051, 5921, -803, 11069, 1863, 1810, 3740, 19113, -1205, 10837, 7938, 49016, -4177, 30176, 6643, 4903, 13734, 48284, 8344, -184, 12585, -5019, 130, -1954, 5983, -558, 18232, 4367, 8486, 5135, 15657, 6268, 6551, 8695, 7438, 4477, -6618, 6021, -3200, 4313, 8775, 16924, 5792, -5225, -5036, 7148, 74, 2396, -934, 11416, 15191, 4533, 21424, 2638, 426, 11671, 77215, 5768, 10452, 7664, -648, 5979, 6008, 5289, 12259, };
const TfArray<1, int> tensor_dimension12 = { 1, { 96 } };
const TfArray<96, float> quant12_scale = { 96, { 0.00032084187841974199, 0.00025083267246372998, 0.00019132888701278716, 7.5557269155979156e-05, 0.00015877556870691478, 0.00030500994762405753, 0.00040841253940016031, 0.00030593914561904967, 5.8303161495132372e-05, 0.00041969676385633647, 0.0002485714212525636, 0.00015165990043897182, 0.00018707178242038935, 0.00026067596627399325, 9.3367096269503236e-05, 0.00041758490260690451, 0.00017747713718563318, 0.00020845717517659068, 0.00017892321920953691, 0.00022516914759762585, 0.00019796512788161635, 0.00066897115902975202, 0.00015966844512149692, 0.00047954244655556977, 0.0010001652408391237, 0.00021292148448992521, 0.00028129923157393932, 0.00019236333901062608, 0.00022818820434622467, 9.7560550784692168e-05, 7.6252785220276564e-05, 0.0001213345312862657, 0.0002733745495788753, 0.00032982495031319559, 0.00018148678645957261, 0.00030675227753818035, 0.00029429254936985672, 0.00039502381696365774, 0.00014163508603814989, 0.00047311314847320318, 0.00016887689707800746, 0.00020236780983395875, 5.5916647397680208e-05, 0.00024790680618025362, 0.00010811520769493654, 0.00023707862419541925, 0.00035498180659487844, 0.00019529688870534301, 8.5293759184423834e-05, 0.00025532813742756844, 0.00035614418447948992, 0.00013507326366379857, 0.00021723446843679994, 0.0002171910455217585, 0.0005394745385274291, 0.00018107527284882963, 0.00018490188813302666, 0.00010256846144329756, 0.00047394185094162822, 0.00018019719573203474, 0.00030341354431584477, 8.7374166469089687e-05, 0.00024200062034651637, 0.00015102274483069777, 0.0002842476824298501, 0.00025592854944989085, 0.00028876506257802248, 0.00020508162560872734, 0.00028827274218201637, 0.00025628096773289144, 0.00026327036903239787, 0.00017907048459164798, 0.00012188986875116825, 0.00017835351172834635, 0.00028300861595198512, 0.00025970913702622056, 0.00023168959887698293, 0.00037027208600193262, 0.00033092498779296875, 0.00042051650234498084, 0.0001805414940463379, 0.0001106432537198998, 0.00017866860434878618, 9.2125294031575322e-05, 0.00045342580415308475, 0.00026738282758742571, 0.00019463477656245232, 5.0462596846045926e-05, 0.00023632192460354418, 0.00021280099463183433, 0.00016218001837842166, 0.00026764092035591602, 0.00024411467893514782, 0.0002540603163652122, 0.00020862801466137171, 0.00014131153875496238, } };
const TfArray<96, int> quant12_zero = { 96, { 0,0,0,0,0,0,0,0,0,0,0,0,0,0,0,0,0,0,0,0,0,0,0,0,0,0,0,0,0,0,0,0,0,0,0,0,0,0,0,0,0,0,0,0,0,0,0,0,0,0,0,0,0,0,0,0,0,0,0,0,0,0,0,0,0,0,0,0,0,0,0,0,0,0,0,0,0,0,0,0,0,0,0,0,0,0,0,0,0,0,0,0,0,0,0,0 } };
const TfLiteAffineQuantization quant12 = { (TfLiteFloatArray*)&quant12_scale, (TfLiteIntArray*)&quant12_zero, 0 };
const MODEL_SECTION(EI_MODEL_SECTION) ALIGN(16) int8_t tensor_data13[96*1*1*16] = { 
  /* [0][0][][] */ 2,66,-9,38,20,25,26,-21,-26,15,-65,93,13,-127,15,-105, 
  /* [1][0][][] */ -3,66,5,-13,31,-36,113,-127,-7,85,-46,-11,14,-32,26,-3, 
  /* [2][0][][] */ -108,-8,-4,-44,8,-55,77,127,16,31,86,-8,-48,22,49,-15, 
  /* [3][0][][] */ -83,95,22,47,-62,52,70,127,3,83,-101,-12,37,-84,-110,-54, 
  /* [4][0][][] */ 4,-23,22,83,-1,86,2,57,30,-7,6,25,26,5,-127,-57, 
  /* [5][0][][] */ -9,-31,84,-19,-9,-36,4,45,-102,127,-27,-126,-26,25,-76,-51, 
  /* [6][0][][] */ 11,-3,14,-3,49,70,-79,-33,-17,14,55,36,127,-19,-27,-26, 
  /* [7][0][][] */ 36,1,127,-19,-5,-19,-5,8,-55,15,-70,-66,14,-4,52,11, 
  /* [8][0][][] */ 60,14,122,89,-58,92,31,105,34,-35,3,-91,-49,23,-126,-127, 
  /* [9][0][][] */ 34,-99,48,44,3,-64,16,24,107,-8,56,-28,1,36,-127,-16, 
  /* [10][0][][] */ -32,-66,38,-53,-90,-9,-55,17,65,104,84,-39,-19,45,127,29, 
  /* [11][0][][] */ 40,-73,-17,-127,12,-40,-75,-76,-101,5,18,-36,25,-20,3,6, 
  /* [12][0][][] */ -22,15,19,-37,-26,-29,-117,-18,-63,-89,-25,53,12,127,82,26, 
  /* [13][0][][] */ 14,-46,-23,51,0,-36,13,-25,35,42,-30,11,15,7,127,-12, 
  /* [14][0][][] */ -25,-38,46,3,4,4,17,127,5,47,-1,-34,-4,36,-51,113, 
  /* [15][0][][] */ 23,-24,-22,66,13,5,103,8,26,-127,4,-23,-20,-30,-12,-39, 
  /* [16][0][][] */ 33,-89,-5,30,9,-20,12,-68,123,66,93,-2,-34,127,106,121, 
  /* [17][0][][] */ -13,2,57,106,127,38,7,-14,58,-45,-5,-49,-1,40,-68,25, 
  /* [18][0][][] */ -41,25,49,46,-112,35,-18,42,-29,6,-63,-83,-19,-127,76,-13, 
  /* [19][0][][] */ 53,-76,40,-8,89,75,-86,63,104,-40,66,29,-47,118,65,127, 
  /* [20][0][][] */ 49,-44,35,-103,-13,-20,-38,24,-38,-64,105,22,18,-9,-66,127, 
  /* [21][0][][] */ -95,8,14,-47,-7,-20,-65,-31,-34,69,17,0,-127,-5,61,-17, 
  /* [22][0][][] */ 18,-23,46,-40,37,-77,-25,-45,-127,53,-26,-44,-19,-1,112,-40, 
  /* [23][0][][] */ 6,20,33,-5,10,17,-20,9,-11,-4,55,16,127,0,8,-39, 
  /* [24][0][][] */ -39,-6,-5,-59,21,18,23,15,-1,-9,1,-127,11,-32,59,-7, 
  /* [25][0][][] */ -55,60,34,-6,17,-81,-115,-117,-88,53,5,-122,-127,-109,68,6, 
  /* [26][0][][] */ 44,13,30,-107,95,7,-19,-9,127,-39,58,11,-1,65,-29,27, 
  /* [27][0][][] */ 116,-32,9,-27,-17,-35,-10,-10,-31,26,-127,33,16,-31,-8,35, 
  /* [28][0][][] */ -123,-23,-127,-82,40,-17,79,-50,-6,14,-109,-20,5,-34,-100,25, 
  /* [29][0][][] */ -58,-17,-12,127,-26,15,8,-31,-2,10,-50,43,15,-55,26,-29, 
  /* [30][0][][] */ 45,-28,127,-13,85,-2,-27,58,-2,-73,70,-76,-26,69,-59,117, 
  /* [31][0][][] */ 2,-107,-15,-87,1,-73,23,-50,-21,44,118,5,-21,94,100,127, 
  /* [32][0][][] */ -8,62,-43,30,-127,12,-61,-45,-55,-30,-12,41,13,43,47,62, 
  /* [33][0][][] */ -16,10,5,127,38,-6,55,-48,-117,83,113,-36,27,9,-13,103, 
  /* [34][0][][] */ 41,-17,7,-19,49,-59,-127,-21,-71,76,-52,14,-8,-17,-42,22, 
  /* [35][0][][] */ 27,11,-23,-3,28,-127,-39,-16,-26,-13,-31,21,48,14,-8,-2, 
  /* [36][0][][] */ 46,-22,-127,7,46,33,-24,33,-28,-13,-6,-21,22,24,-14,-3, 
  /* [37][0][][] */ 23,3,127,-14,-57,20,8,-62,-21,20,-18,-2,4,3,24,-6, 
  /* [38][0][][] */ -118,63,-18,68,40,90,38,-23,-26,-9,127,-42,-77,-15,-19,-47, 
  /* [39][0][][] */ -8,9,24,34,39,-13,-127,43,5,37,-6,-28,22,-17,-24,6, 
  /* [40][0][][] */ -25,55,9,127,23,10,63,49,-81,-41,-46,66,4,83,-26,-35, 
  /* [41][0][][] */ -5,18,-43,-52,-32,-31,127,78,-63,88,-13,-18,-15,78,32,-15, 
  /* [42][0][][] */ 15,-65,-2,-53,48,32,-95,9,47,-109,127,15,-17,-6,-95,16, 
  /* [43][0][][] */ -75,26,64,-114,-22,47,-83,-107,-57,61,-22,-58,-127,-63,49,-3, 
  /* [44][0][][] */ 9,12,34,40,-15,-12,1,-13,127,-2,-12,41,30,94,-6,30, 
  /* [45][0][][] */ -111,3,64,-74,35,-26,-3,23,35,-35,20,-61,35,127,39,78, 
  /* [46][0][][] */ -25,17,-20,93,-93,-36,-4,-81,-127,28,-37,-38,-1,29,8,-18, 
  /* [47][0][][] */ -30,24,-95,127,9,67,-15,0,30,37,46,70,-32,6,38,12, 
  /* [48][0][][] */ -28,13,78,-78,31,-42,-15,-29,-55,53,59,12,-10,27,127,10, 
  /* [49][0][][] */ -17,21,52,93,11,24,-75,-20,15,-43,-65,-21,-26,-40,-59,-127, 
  /* [50][0][][] */ 34,52,20,-112,49,2,30,57,127,-16,-11,-14,-8,-28,51,-4, 
  /* [51][0][][] */ 7,-103,21,-47,41,-79,-25,-127,18,-114,42,-26,-30,21,-41,55, 
  /* [52][0][][] */ -18,1,-18,18,47,-1,-76,102,-73,127,-15,-57,81,94,61,-73, 
  /* [53][0][][] */ 16,112,8,-71,-10,63,27,-3,-65,-31,-74,83,19,-118,-127,-97, 
  /* [54][0][][] */ -10,3,7,16,53,-34,18,-38,-10,28,2,-38,-8,127,-27,-29, 
  /* [55][0][][] */ -127,107,92,-17,24,-24,-10,-20,-34,25,63,-31,-10,-8,95,-8, 
  /* [56][0][][] */ 100,11,29,-99,105,20,-79,44,15,-49,35,127,12,-2,34,70, 
  /* [57][0][][] */ -28,2,35,49,-38,24,84,127,-16,23,11,-68,-11,73,-33,18, 
  /* [58][0][][] */ 3,127,0,-93,-6,23,13,37,94,8,-11,63,-1,-65,15,69, 
  /* [59][0][][] */ 24,64,52,-67,-60,10,46,21,35,32,76,-77,10,-127,-17,28, 
  /* [60][0][][] */ 75,-3,127,-56,-44,126,23,-48,-18,24,-18,16,42,2,37,-31, 
  /* [61][0][][] */ -1,1,-86,-62,-76,21,122,127,-49,120,14,-29,-16,102,7,-52, 
  /* [62][0][][] */ -22,-46,49,39,-50,11,-69,24,10,-9,-20,-127,4,-59,88,16, 
  /* [63][0][][] */ 36,-39,-3,-108,36,-27,-120,-127,-64,75,30,-30,44,-3,12,-21, 
  /* [64][0][][] */ -42,29,34,26,69,-17,-24,-127,16,-87,-15,-34,5,-20,14,0, 
  /* [65][0][][] */ -127,30,52,-61,0,64,38,-63,-72,21,42,-18,4,41,-1,-29, 
  /* [66][0][][] */ 54,-7,57,0,-89,21,-48,78,-48,-19,109,-127,5,52,-127,4, 
  /* [67][0][][] */ 40,6,-70,37,57,-74,-52,-105,61,-127,-56,-88,-91,8,-100,68, 
  /* [68][0][][] */ 2,-24,-34,45,-30,-55,2,-35,-46,24,27,-14,4,48,127,-49, 
  /* [69][0][][] */ -6,5,-90,45,-35,-64,23,90,34,25,83,21,127,13,32,21, 
  /* [70][0][][] */ -6,9,-27,-41,-38,18,127,79,-12,45,-24,-5,-2,65,-5,1, 
  /* [71][0][][] */ 31,-27,-32,-50,37,16,12,80,-22,-55,-5,-18,15,-127,51,19, 
  /* [72][0][][] */ 56,47,26,32,37,-63,-49,-127,5,55,-78,2,106,63,49,60, 
  /* [73][0][][] */ -37,-127,-50,-79,-103,-47,62,-10,-13,12,2,-66,35,-23,78,-13, 
  /* [74][0][][] */ -24,36,66,100,-19,11,-127,79,23,-26,-41,-48,16,-4,-49,9, 
  /* [75][0][][] */ -56,16,-27,8,-15,106,118,127,-5,31,-4,-18,-127,67,34,19, 
  /* [76][0][][] */ -8,4,-11,-31,14,-93,-127,-103,-37,-22,0,-46,48,-14,68,31, 
  /* [77][0][][] */ -36,16,-55,-59,-66,-47,7,-68,127,17,-36,16,-7,5,67,-58, 
  /* [78][0][][] */ -113,-127,-7,76,57,28,-9,20,-25,-82,-113,47,56,-38,87,90, 
  /* [79][0][][] */ 34,-5,34,-72,127,-6,75,13,77,21,7,20,-13,-27,5,-48, 
  /* [80][0][][] */ -3,-33,38,-127,-10,-39,-9,44,-59,-68,-41,-17,26,112,-33,8, 
  /* [81][0][][] */ 27,-34,40,62,15,93,-8,-13,12,-8,-47,-27,-18,48,-127,-15, 
  /* [82][0][][] */ -64,3,22,-127,-21,-37,-30,-39,-25,-37,-17,-64,19,-95,-27,13, 
  /* [83][0][][] */ -39,-10,-14,-101,-44,-8,17,13,-84,-14,-15,-127,-11,-112,11,121, 
  /* [84][0][][] */ 127,28,31,49,-50,-23,-61,24,-5,-26,87,-15,-50,32,55,-61, 
  /* [85][0][][] */ 0,-21,54,-3,41,0,-9,127,-79,-117,-55,10,-74,77,66,-104, 
  /* [86][0][][] */ 24,35,-31,-12,-48,90,-53,-3,-94,-40,51,0,-12,-127,-53,15, 
  /* [87][0][][] */ 127,-24,36,-16,-49,-41,6,5,-13,26,-98,19,33,-9,-9,35, 
  /* [88][0][][] */ 20,17,-23,-2,-11,-37,1,-34,49,-8,11,62,-12,-11,127,-59, 
  /* [89][0][][] */ 61,95,-71,-24,-60,-40,18,-103,55,35,7,-23,-37,-4,-28,-127, 
  /* [90][0][][] */ -21,-7,-10,-80,-92,1,127,-90,52,-101,35,-73,36,-31,-2,-5, 
  /* [91][0][][] */ 42,-30,-11,-127,-4,47,-25,-51,-70,9,98,83,28,-29,10,115, 
  /* [92][0][][] */ 29,2,-8,-1,55,-5,-68,-127,26,-86,-5,-23,-11,-34,3,-41, 
  /* [93][0][][] */ 111,-10,27,-122,-26,20,-54,29,54,-73,108,-11,-38,127,-16,-10, 
  /* [94][0][][] */ -76,30,-99,17,97,-127,-51,6,-9,-67,74,5,1,-6,-49,-22, 
  /* [95][0][][] */ -22,120,40,-127,7,7,-55,-1,42,-21,-80,-63,-25,49,-57,5, 
};
const TfArray<4, int> tensor_dimension13 = { 4, { 96,1,1,16 } };
const TfArray<96, float> quant13_scale = { 96, { 0.00097239838214591146, 0.00076021655695512891, 0.00057987414766103029, 0.00022899681061971933, 0.00048121248255483806, 0.00092441547894850373, 0.0012378051178529859, 0.0009272316237911582, 0.0001767035573720932, 0.0012720050290226936, 0.00075336318695917726, 0.00045964651508256793, 0.00056697183754295111, 0.00079004932194948196, 0.00028297433163970709, 0.0012656043982133269, 0.0005378926289267838, 0.00063178606797009706, 0.00054227537475526333, 0.0006824362208135426, 0.00059998704819008708, 0.0020274987909942865, 0.00048391858581453562, 0.0014533835928887129, 0.0030312724411487579, 0.00064531638054177165, 0.00085255369776859879, 0.00058300932869315147, 0.00069158629048615694, 0.00029568374156951904, 0.00023110477195587009, 0.00036773722968064249, 0.00082853581989184022, 0.00099962402600795031, 0.00055004499154165387, 0.00092969601973891258, 0.00089193350868299603, 0.0011972269276157022, 0.00042926357127726078, 0.0014338978799059987, 0.00051182729657739401, 0.00061333057237789035, 0.00016947058611549437, 0.00075134891085326672, 0.00032767248922027647, 0.00071853114059194922, 0.0010758687276393175, 0.00059190025785937905, 0.00025850589736364782, 0.00077384128235280514, 0.0010793916881084442, 0.00040937619633041322, 0.00065838801674544811, 0.00065825640922412276, 0.0016350239748135209, 0.00054879777599126101, 0.00056039536138996482, 0.00031086156377568841, 0.001436409424059093, 0.00054613652173429728, 0.00091957708355039358, 0.00026481112581677735, 0.00073344859993085265, 0.00045771541772410274, 0.00086148973787203431, 0.00077566091204062104, 0.00087518093641847372, 0.00062155554769560695, 0.0008736888412386179, 0.00077672908082604408, 0.00079791236203163862, 0.0005427217110991478, 0.00036942033329978585, 0.00054054876090958714, 0.00085773447062820196, 0.0007871190900914371, 0.00070219824556261301, 0.0011222100583836436, 0.0010029580444097519, 0.0012744894484058022, 0.00054718001047149301, 0.0003353344218339771, 0.00054150371579453349, 0.00027921071159653366, 0.0013742300216108561, 0.00081037625204771757, 0.00058989354874938726, 0.00015294059994630516, 0.00071623775875195861, 0.00064495118567720056, 0.00049153057625517249, 0.00081115850480273366, 0.00073985580820590258, 0.0007699987618252635, 0.00063230382511392236, 0.00042828300502151251, } };
const TfArray<96, int> quant13_zero = { 96, { 0,0,0,0,0,0,0,0,0,0,0,0,0,0,0,0,0,0,0,0,0,0,0,0,0,0,0,0,0,0,0,0,0,0,0,0,0,0,0,0,0,0,0,0,0,0,0,0,0,0,0,0,0,0,0,0,0,0,0,0,0,0,0,0,0,0,0,0,0,0,0,0,0,0,0,0,0,0,0,0,0,0,0,0,0,0,0,0,0,0,0,0,0,0,0,0 } };
const TfLiteAffineQuantization quant13 = { (TfLiteFloatArray*)&quant13_scale, (TfLiteIntArray*)&quant13_zero, 0 };
const MODEL_SECTION(EI_MODEL_SECTION) ALIGN(16) int32_t tensor_data14[16] = { -977, 5223, 14357, 23014, 25456, 957, -9533, -8417, 28862, 7693, 25753, 18571, -4878, 9485, 34121, -23779, };
const TfArray<1, int> tensor_dimension14 = { 1, { 16 } };
const TfArray<16, float> quant14_scale = { 16, { 0.00045781981316395104, 0.00033006496960297227, 0.00024035676324274391, 0.00021479051792994142, 0.00037585309473797679, 0.00033194664865732193, 0.00030587171204388142, 0.00031415384728461504, 0.00022032941342331469, 0.00029229873325675726, 0.0003884754260070622, 0.00068308773916214705, 0.00040718502714298666, 0.00046894489787518978, 0.00057015387574210763, 0.00032600364647805691, } };
const TfArray<16, int> quant14_zero = { 16, { 0,0,0,0,0,0,0,0,0,0,0,0,0,0,0,0 } };
const TfLiteAffineQuantization quant14 = { (TfLiteFloatArray*)&quant14_scale, (TfLiteIntArray*)&quant14_zero, 0 };
const MODEL_SECTION(EI_MODEL_SECTION) ALIGN(16) int8_t tensor_data15[16*1*1*96] = { 
  /* [0][0][][] */ -9,24,5,29,66,72,-41,-16,40,-5,-2,-7,-21,10,31,66,6,5,-8,-29,105,-51,4,-27,-25,-21,-21,-93,-17,1,56,43,127,0,24,-2,1,-35,-24,13,-40,24,13,-16,4,-30,-14,28,-21,15,3,-17,-39,-21,-9,1,31,21,-22,-38,-44,3,-8,-20,22,3,65,1,10,-4,-13,-17,-70,-5,-19,-14,12,-81,-20,-9,18,-15,-49,-48,40,-16,33,28,-12,2,13,-59,34,23,-14,126, 
  /* [1][0][][] */ 49,-101,30,77,-11,-83,-40,-51,-23,-72,-23,43,4,-101,-40,-115,-101,-6,20,33,-41,-127,-3,11,122,-55,-68,23,-62,105,-26,61,6,22,-57,48,-8,-10,60,-25,17,-80,68,-31,-31,-13,45,3,44,-19,-12,-44,62,-52,22,-26,13,-5,-8,-114,6,-57,36,-56,-2,-80,15,47,15,8,-87,-9,-106,26,17,28,7,67,31,-53,24,-5,-64,15,-103,47,-22,77,-48,2,-20,3,1,-49,19,0, 
  /* [2][0][][] */ 14,-4,-29,-52,-11,-2,-38,11,65,-21,26,60,-22,-1,28,-24,-30,-24,21,35,-15,-72,11,-53,-21,-13,-29,-2,-34,9,97,-83,26,-57,-42,34,14,127,-48,-28,38,-35,-23,28,-54,-65,-53,-14,29,-11,-27,-2,39,-10,-27,-45,-58,16,10,9,-8,11,68,84,-1,-81,5,-83,-39,-31,-28,2,-21,2,-23,7,1,36,6,3,7,70,21,-17,-30,9,13,6,-15,-16,-24,-53,-59,4,-14,49, 
  /* [3][0][][] */ -6,-13,-51,29,34,-36,14,-26,-13,24,8,5,-6,-14,52,16,43,-46,4,14,5,-7,-31,-15,2,17,-3,1,24,-42,52,-10,9,-15,-23,52,-8,28,-16,9,6,-73,35,-23,0,-13,-24,4,-121,46,-20,36,-127,-38,-25,-40,51,2,-8,61,-1,43,-7,22,-18,-85,-51,38,36,35,5,29,-36,13,5,-23,-53,-51,33,-33,28,-19,23,74,51,62,35,25,37,-11,-6,28,-25,20,-12,-27, 
  /* [4][0][][] */ -6,-22,1,-58,-5,-18,-34,0,-23,-35,-44,-8,5,67,13,14,49,-8,17,-2,7,16,42,-3,3,-7,11,10,-7,-5,-1,-5,-35,-1,8,16,26,-15,-3,-16,3,2,-82,-28,26,-12,-5,-21,2,71,-29,-21,-10,5,3,-12,0,-19,17,36,18,1,-7,3,20,-114,13,-8,-44,26,-4,-3,-14,29,-23,47,-23,54,37,26,5,0,127,-39,55,-11,-8,-3,80,9,-10,32,-45,25,-7,-51, 
  /* [5][0][][] */ 3,-5,-20,0,-3,-23,15,112,44,-24,-14,-21,-26,36,47,47,-17,-5,2,-39,-60,-19,-25,-70,27,12,14,71,92,6,75,49,-61,16,8,5,-50,-51,-38,-16,-56,-16,-6,-7,68,10,-3,11,17,29,-30,12,-38,-12,11,-5,-2,-18,-25,31,-63,43,-12,-36,12,15,-29,14,-11,34,22,3,28,19,12,19,-22,27,3,127,-5,-37,16,34,29,-18,14,-20,14,-12,25,-117,-37,-17,-4,-122, 
  /* [6][0][][] */ -37,8,24,-75,-19,-20,-19,26,6,57,-6,-8,76,-66,9,-15,3,-65,27,13,6,-1,-4,34,78,-19,3,38,48,-13,21,5,-31,-19,-39,5,52,2,59,46,-14,-29,-53,-9,-2,-26,38,-127,21,24,18,15,15,8,-16,-25,29,-9,-3,-3,38,18,13,3,37,69,36,-11,-3,-17,-23,-10,5,11,68,-27,-23,34,19,13,-11,6,56,-28,-10,57,11,-7,23,-6,-41,0,-27,3,-6,11, 
  /* [7][0][][] */ 28,16,28,-18,1,-9,9,-19,5,-10,-27,-13,-36,-85,53,39,0,-35,-21,-23,0,-15,-38,-16,-15,2,17,-26,12,15,8,-16,-12,0,-3,-20,-4,-31,-43,32,-4,-15,-30,41,-14,22,-5,81,-12,35,-14,-38,-34,7,3,-77,59,-7,-1,-7,-2,8,-13,-7,-15,64,20,-23,-9,14,25,36,-13,-16,-24,24,48,14,-9,-15,17,-33,36,-4,-30,127,-2,2,-35,1,2,5,-10,15,3,4, 
  /* [8][0][][] */ -67,33,-53,12,31,-22,-3,20,4,51,-47,-8,-12,49,79,4,-7,19,-85,29,-7,43,-20,9,-40,-35,-5,10,78,-105,-19,-7,44,15,-1,6,-29,20,-59,41,-11,-4,24,-127,-70,-8,44,-20,-66,57,15,59,-120,60,17,-20,26,-21,-44,-1,-6,-24,28,33,4,64,24,-36,1,19,60,74,-30,13,24,21,-14,-88,-10,-70,-30,-15,19,1,-45,-2,33,-69,-11,65,-11,-18,23,-30,-23,-14, 
  /* [9][0][][] */ 24,-49,-33,-37,11,2,-40,11,24,-16,3,16,-25,-24,-20,-6,-8,-4,41,-11,-22,9,2,-32,33,-7,33,-1,-47,-38,-26,-14,0,-6,-4,34,8,45,-27,2,22,-16,-7,-104,12,-20,21,-127,-43,-30,-1,41,-24,3,-18,2,-41,3,4,13,14,-5,8,43,15,109,32,39,16,-26,-17,-27,-11,5,-13,6,63,3,22,9,2,14,21,-48,3,37,9,15,-63,11,-45,18,10,11,3,-17, 
  /* [10][0][][] */ 35,36,-39,27,72,-100,-10,-27,-8,53,47,-3,-17,19,5,-74,32,39,-31,31,-85,-21,-7,-45,-64,-8,-60,56,30,22,11,27,-1,-6,39,-4,89,-16,-39,-1,-11,69,43,-22,-70,-7,-26,6,-2,-22,-22,-3,-13,-9,-1,-4,-4,36,-14,3,-4,36,-9,17,8,45,47,29,12,21,62,22,-60,-13,-58,5,-21,18,-13,12,46,-5,-62,-44,63,-54,92,-5,-7,19,32,-7,87,39,-20,-127, 
  /* [11][0][][] */ 52,42,-32,29,3,13,68,-1,-15,-35,-22,-7,-18,5,49,16,5,-6,-108,-26,2,13,-3,-22,-33,-21,-9,-1,13,31,10,-5,-7,13,23,35,-9,17,-18,15,-5,34,65,-102,27,-59,-2,-2,-127,36,-5,-47,19,28,-5,9,0,-13,-8,14,15,-14,-5,27,-45,55,-26,7,20,8,39,11,-47,-24,1,34,-9,-33,-60,4,-6,-3,87,56,36,-22,-3,-9,19,36,-3,-6,-8,7,-19,18, 
  /* [12][0][][] */ -30,-5,13,13,-31,26,25,-11,127,-29,-43,-7,-11,8,-43,-53,27,29,23,48,30,54,4,-10,13,-5,40,-43,-118,-8,21,-55,21,-4,-2,-27,1,-22,1,-16,-41,-19,0,-2,-5,36,16,-5,1,12,-37,-4,-3,-16,22,-23,69,-23,13,7,20,-33,11,7,-20,41,-47,7,9,3,-21,-31,9,-1,-91,-2,44,4,-18,-59,-36,16,51,41,2,-18,-11,-22,18,31,6,48,-12,-23,21,13, 
  /* [13][0][][] */ 25,-2,-25,16,32,6,0,3,-6,16,24,-2,19,-8,6,-13,26,-68,-36,10,2,-18,11,10,-1,19,2,0,-11,-30,-7,11,7,2,-2,34,29,6,10,19,8,1,18,40,16,16,-4,-127,12,-17,9,15,-12,3,8,8,-17,11,30,13,14,13,-23,-2,-5,-13,-15,-50,13,16,-9,-27,1,42,-12,29,-25,2,20,10,36,-18,-16,22,5,43,20,21,-12,2,19,-8,3,19,-3,-11, 
  /* [14][0][][] */ -101,-56,19,22,20,-6,-43,4,-12,12,3,-2,73,-3,-127,-12,67,-12,-5,55,-4,-8,37,27,-96,1,15,1,-22,-62,-34,-5,6,7,15,-49,26,38,12,3,25,21,6,-44,6,102,56,41,-80,39,33,25,-29,-21,26,2,-7,7,45,70,44,53,16,26,-1,-23,-43,25,-3,58,-40,-72,-60,-1,-6,26,-13,30,72,-8,57,-3,31,9,20,7,41,21,21,41,54,-11,0,3,11,-23, 
  /* [15][0][][] */ 86,-27,54,-15,-26,75,3,-10,-14,65,23,6,-92,-12,-23,8,8,30,51,-6,9,31,-68,96,5,2,64,0,26,44,-78,-100,12,-45,21,-18,37,-65,-40,-107,13,4,-16,39,-19,64,-11,-34,96,-75,-34,35,49,-126,52,-108,-29,-53,30,15,-127,-11,21,18,84,-11,-51,47,-29,56,-30,14,58,22,1,-3,22,-52,80,-12,-14,-18,29,77,-31,1,6,-58,-21,-32,63,4,-76,59,17,-12, 
};
const TfArray<4, int> tensor_dimension15 = { 4, { 16,1,1,96 } };
const TfArray<16, float> quant15_scale = { 16, { 0.019457342103123665, 0.014027761295437813, 0.010215162299573421, 0.0091285966336727142, 0.015973756089806557, 0.014107732102274895, 0.012999547645449638, 0.013351538218557835, 0.0093639995902776718, 0.012422695755958557, 0.016510205343365669, 0.029031228274106979, 0.017305362969636917, 0.0199301578104496, 0.02423153817653656, 0.013855154626071453, } };
const TfArray<16, int> quant15_zero = { 16, { 0,0,0,0,0,0,0,0,0,0,0,0,0,0,0,0 } };
const TfLiteAffineQuantization quant15 = { (TfLiteFloatArray*)&quant15_scale, (TfLiteIntArray*)&quant15_zero, 0 };
const MODEL_SECTION(EI_MODEL_SECTION) ALIGN(16) int32_t tensor_data16[96] = { 10821, -9624, 3252, 61822, -1228, -4045, -10763, 1241, -2867, 656, 2458, -1520, 187, -7018, 4665, -5472, -2474, 15746, 27086, 1829, 1676, -1848, -834, -80, 19390, -940, -1742, -3723, -6380, -7585, 7594, -9641, 358, -783, -327, 14021, 1308, -4143, 22926, 628, -180, 2311, -9333, -7690, -7620, 67710, -674, 15255, 29503, -13390, -27, 8571, 6689, -1281, -5878, 3189, -12776, 1583, 1345, -5779, -1854, -819, -10476, -3533, 1674, 15000, 30032, 27987, -12285, 233, -9069, -870, 49638, 8929, -219, 180, 17961, 32676, -492, -7900, -1809, -9646, 320, -2686, 134, -312, 493, -691, 1309, -2975, -117, 373, 2045, 132, 663, 48138, };
const TfArray<1, int> tensor_dimension16 = { 1, { 96 } };
const TfArray<96, float> quant16_scale = { 96, { 0.00019422004697844386, 0.00011149524652864784, 0.00030243757646530867, 3.4665470593608916e-05, 0.00018496935081202537, 0.00016937071632128209, 0.00031267100712284446, 8.0994068412110209e-05, 0.00011175229155924171, 0.00047977312351576984, 0.00019044254440814257, 0.00028832184034399688, 0.00011063016427215189, 0.0003768342430703342, 0.00020339968614280224, 0.0001471308059990406, 0.0001092540769604966, 0.00026475434424355626, 5.6546155974501744e-05, 0.00033071311190724373, 4.5548400521511212e-05, 0.00019848515512421727, 0.00012762246478814632, 0.00040275967330671847, 0.00017929113528225571, 0.00021314283367246389, 0.00014783906226512045, 0.00018151436233893037, 0.00012645016249734908, 0.00010391331306891516, 0.00012546598736662418, 0.00015993734996300191, 0.00012498488649725914, 0.00014392794400919229, 0.00024637524620629847, 0.00016930955462157726, 0.00044880778295919299, 0.00011815354810096323, 4.1836181480903178e-05, 0.00011511806951602921, 0.00027359809610061347, 0.00040835957042872906, 0.00038625486195087433, 0.00015427077596541494, 0.00018699099018704146, 4.6908411604817957e-05, 0.0002273029531352222, 0.00023379224876407534, 9.2693604528903961e-05, 0.00018036059918813407, 0.00019096494361292571, 0.00016280041018035263, 0.00025080732302740216, 0.00028837242280133069, 0.00028189172735437751, 0.00045905890874564648, 0.00030248574330471456, 0.00020785327069461346, 0.00011472873302409425, 8.7547778093721718e-05, 0.00030172214610502124, 0.00015668968262616545, 0.00032842723885551095, 0.00013275243691168725, 0.00019527247059158981, 0.00019547560077626258, 8.2968974311370403e-05, 6.367199239321053e-05, 0.0003372491046320647, 0.00024216115707531571, 0.00021301102242432535, 8.3246181020513177e-05, 0.00011423245450714603, 0.00013154115003999323, 0.00014118378749117255, 0.0002394479961367324, 0.00048754710587672889, 4.8820340452948585e-05, 0.00029432857991196215, 0.00023289163073059171, 0.00016783110913820565, 0.00021653492876794189, 0.00014692706463392824, 0.0001268013147637248, 0.00014754975563846529, 0.00010173210466746241, 0.00013862823834642768, 0.00019411178072914481, 0.00020153145305812359, 0.000113305875856895, 0.0002070688788080588, 0.00011063613055739552, 0.00015921860176604241, 0.00045850922469981015, 0.0019476915476843715, 8.1718208093661815e-05, } };
const TfArray<96, int> quant16_zero = { 96, { 0,0,0,0,0,0,0,0,0,0,0,0,0,0,0,0,0,0,0,0,0,0,0,0,0,0,0,0,0,0,0,0,0,0,0,0,0,0,0,0,0,0,0,0,0,0,0,0,0,0,0,0,0,0,0,0,0,0,0,0,0,0,0,0,0,0,0,0,0,0,0,0,0,0,0,0,0,0,0,0,0,0,0,0,0,0,0,0,0,0,0,0,0,0,0,0 } };
const TfLiteAffineQuantization quant16 = { (TfLiteFloatArray*)&quant16_scale, (TfLiteIntArray*)&quant16_zero, 0 };
const MODEL_SECTION(EI_MODEL_SECTION) ALIGN(16) int8_t tensor_data17[1*3*3*96] = { 
  /* [0][0][][] */ -19,7,-21,109,-16,20,-63,-55,16,-6,103,-10,5,-8,-3,58,7,18,-32,4,77,1,32,-34,3,17,43,48,23,12,22,47,-10,25,9,-17,6,49,-70,-27,20,9,26,19,-82,-51,27,-6,-12,-17,-9,-6,49,7,-8,1,-2,-31,27,-32,28,0,127,28,-13,-12,7,-48,65,37,4,-5,78,-29,70,4,16,-127,27,67,3,10,127,-17,38,27,-25,-20,36,-10,-14,80,-1,20,-4,12, -50,17,-8,12,51,-11,-11,-127,38,14,-127,-5,-13,-13,6,101,18,-31,-17,-16,80,-96,127,26,-61,-32,-104,-15,33,36,-50,17,115,10,-12,-3,-23,127,-72,-127,9,-19,-31,12,45,-127,127,-46,-77,52,46,6,39,-62,32,54,42,42,-95,84,127,34,4,-18,42,-38,-95,4,37,-29,-14,50,-51,-47,108,-3,-32,-62,-35,68,-62,60,-16,9,-10,45,54,-41,-25,50,-12,72,-127,-30,21,-127, -1,-1,-23,-73,9,17,38,22,-6,-1,3,61,1,-13,-9,11,-13,18,-17,16,8,24,23,-32,-1,-33,13,12,-3,7,45,-78,43,14,12,-24,14,6,-40,-22,8,2,-18,10,21,-33,22,-1,5,-9,8,-5,5,7,-6,7,-7,45,9,-2,13,-18,5,-14,-26,-19,26,-46,-107,-6,44,-14,-127,-20,-8,16,8,-12,7,13,-13,22,-39,-4,-39,18,26,35,-23,-18,25,-12,15,8,-3,-45, 
  /* [0][1][][] */ -42,62,-18,42,-84,-17,-10,-44,25,96,-43,-23,-29,-25,-4,60,127,-24,-92,-12,60,-127,-26,15,-33,-49,-127,-6,39,36,-50,29,-127,-76,-56,2,65,-3,-58,47,-19,86,3,-2,34,-48,-11,-33,127,48,-6,19,45,11,-37,-17,38,8,-119,127,-36,-90,20,127,-60,-36,-88,124,-36,127,-20,56,-35,-55,36,8,-35,-69,127,48,127,30,6,-3,127,29,-95,47,-39,-36,-101,39,92,99,27,-60, 127,127,127,127,-44,-127,127,24,127,-127,19,-127,-98,127,127,127,-12,-127,-60,-127,127,23,-63,127,127,127,-56,-127,127,127,-127,127,-8,-127,-118,127,-127,-45,98,109,-127,-127,127,127,127,-115,-106,127,-14,127,-127,-127,-127,127,127,-127,127,-127,-36,40,-104,-26,-71,-63,127,127,-64,127,127,-106,-127,127,-45,127,-127,-127,-127,126,-77,127,-41,127,82,127,-38,-127,-27,-105,-127,-127,-21,-127,-23,-127,-127,117, -25,67,-39,4,127,71,-21,47,4,26,-14,-6,-25,-31,-12,-8,-101,-22,-127,39,33,76,-11,-112,-34,-42,125,74,11,39,72,9,122,-50,127,-3,55,8,-103,15,36,23,-23,1,-22,-52,-11,-43,81,17,-13,38,-5,-2,-75,-15,28,18,127,-87,4,127,1,-33,-111,-29,-73,97,14,-16,116,27,-18,-54,15,47,-28,-8,-40,-1,-46,1,42,22,-89,34,127,-47,32,-22,127,-10,-116,33,32,18, 
  /* [0][2][][] */ -5,-36,-22,-63,-4,17,40,30,0,10,-19,51,26,-34,-5,8,42,1,4,23,-9,29,-17,-25,1,-27,8,5,-8,-4,49,-72,-40,66,-25,-27,31,-33,-73,18,11,11,-32,19,11,-80,-11,-2,-7,13,15,-9,8,2,-22,7,2,43,-49,34,-5,-12,4,19,-7,-9,23,-51,-55,10,-24,-13,-115,-35,3,19,17,-11,59,19,21,22,-41,16,15,28,-22,13,3,26,22,-7,15,40,-6,-33, -30,-8,-27,25,-44,73,-25,65,8,-4,56,-11,127,-7,-19,-14,0,-40,-65,26,-27,78,-42,-108,-48,-48,102,68,16,45,53,-1,-116,62,-11,-25,-28,-25,-127,-4,45,-12,-14,35,-27,-50,-18,-49,-59,33,66,21,-11,-79,31,52,21,25,73,-54,18,-60,-10,3,18,-25,-127,-55,-10,-28,-62,20,35,-50,-28,-6,-43,24,-55,1,49,36,20,11,6,62,-90,127,16,127,-31,-20,108,-21,46,85, -11,-32,-25,30,12,63,-45,13,6,-4,1,12,17,-51,-10,-13,-45,-5,11,21,-26,3,-20,6,-5,19,-1,53,-2,-1,34,30,21,42,22,-24,-5,-24,-33,7,13,-11,21,10,-74,-37,-12,3,0,-11,-1,-6,-8,8,-18,-6,1,-47,15,-30,-24,49,11,-26,-11,-1,32,-55,45,5,58,-17,31,-57,-13,23,13,13,-1,25,-30,28,81,-15,-18,55,42,-8,110,15,2,-21,6,-22,-7,-50, 
};
const TfArray<4, int> tensor_dimension17 = { 4, { 1,3,3,96 } };
const TfArray<96, float> quant17_scale = { 96, { 0.0082543520256876945, 0.0047385478392243385, 0.012853597290813923, 0.0014732824638485909, 0.0078611969947814941, 0.0071982555091381073, 0.013288517482578754, 0.0034422478638589382, 0.0047494722530245781, 0.020390357822179794, 0.0080938078463077545, 0.012253678403794765, 0.0047017820179462433, 0.01601545512676239, 0.008644486777484417, 0.006253059022128582, 0.0046432982198894024, 0.011252059601247311, 0.002403211547061801, 0.014055307023227215, 0.0019358069403097034, 0.0084356190636754036, 0.0054239546880125999, 0.01711728610098362, 0.0076198731549084187, 0.0090585704892873764, 0.0062831602990627289, 0.0077143600210547447, 0.0053741317242383957, 0.0044163158163428307, 0.0053323046304285526, 0.0067973369732499123, 0.0053118574433028698, 0.006116937380284071, 0.010470948182046413, 0.0071956561878323555, 0.019074330106377602, 0.0050215255469083786, 0.001778037752956152, 0.0048925178125500679, 0.011627919040620327, 0.017355281859636307, 0.016415830701589584, 0.0065565081313252449, 0.0079471170902252197, 0.001993607496842742, 0.0096603753045201302, 0.0099361706525087357, 0.0039394781924784184, 0.0076653254218399525, 0.0081160096451640129, 0.0069190175272524357, 0.010659310966730118, 0.012255827896296978, 0.011980397626757622, 0.019510002806782722, 0.012855643406510353, 0.0088337641209363937, 0.0048759710043668747, 0.0037207803688943386, 0.012823191471397877, 0.0066593112424015999, 0.013958157040178776, 0.0056419786997139454, 0.0082990797236561775, 0.008307713083922863, 0.003526181448251009, 0.0027060597203671932, 0.014333087019622326, 0.010291849263012409, 0.0090529685840010643, 0.0035379626788198948, 0.004854879342019558, 0.0055904989130795002, 0.0060003111138939857, 0.010176539421081543, 0.020720751956105232, 0.0020748644601553679, 0.012508964166045189, 0.0098978942260146141, 0.0071328221820294857, 0.0092027345672249794, 0.0062444000504910946, 0.0053890557028353214, 0.006270864512771368, 0.0043236142955720425, 0.0058916998095810413, 0.0082497503608465195, 0.0085650868713855743, 0.0048154997639358044, 0.0088004274293780327, 0.0047020353376865387, 0.0067667905241250992, 0.019486641511321068, 0.082776889204978943, 0.0034730236511677504, } };
const TfArray<96, int> quant17_zero = { 96, { 0,0,0,0,0,0,0,0,0,0,0,0,0,0,0,0,0,0,0,0,0,0,0,0,0,0,0,0,0,0,0,0,0,0,0,0,0,0,0,0,0,0,0,0,0,0,0,0,0,0,0,0,0,0,0,0,0,0,0,0,0,0,0,0,0,0,0,0,0,0,0,0,0,0,0,0,0,0,0,0,0,0,0,0,0,0,0,0,0,0,0,0,0,0,0,0 } };
const TfLiteAffineQuantization quant17 = { (TfLiteFloatArray*)&quant17_scale, (TfLiteIntArray*)&quant17_zero, 3 };
const MODEL_SECTION(EI_MODEL_SECTION) ALIGN(16) int32_t tensor_data18[96] = { 16930, 883, 6785, -605, 4749, 4909, 11467, 5823, -932, 14802, 7471, 1914, 6714, 23475, -781, -1826, 6712, 12415, 1331, -171, -559, 24946, 3792, 3169, 6382, 5124, 4755, 3948, 11, -8, 5457, 8433, 18296, 2164, 9757, -501, 16442, 6673, 616, 3394, 702, 12995, 11994, 4090, 4617, 12908, 15623, 8351, 4527, 3583, 317, -1195, 13320, 7036, 8083, 16012, -231, 9715, 1820, 3380, 11007, 6958, 2964, 6786, 6495, 5601, 4676, -1064, 11707, 5690, 7548, -1120, -1395, 4631, 2199, 2422, 16777, 11990, 14125, -2799, 3030, -5252, -2241, 607, 7417, 7344, 4734, 4743, 10727, 3207, 9192, 3290, 24264, 16491, -10613, 16554, };
const TfArray<1, int> tensor_dimension18 = { 1, { 96 } };
const TfArray<96, float> quant18_scale = { 96, { 0.00015306727436836809, 0.0003255774499848485, 0.00018978677690029144, 0.00089778227265924215, 0.00033109314972534776, 0.00019952333241235465, 0.0002744630619417876, 0.00060767051763832569, 0.00046867155469954014, 0.00011991490464424714, 0.00019907868409063667, 0.00043304826249368489, 0.00040062473271973431, 0.00020790785492863506, 0.00024691471480764449, 0.00034351606154814363, 0.00031737281824462116, 0.00018421997083351016, 0.00029589564655907452, 0.00054584624012932181, 0.00048196798888966441, 9.8368327599018812e-05, 0.00040457633440382779, 0.00022903054195921868, 0.00028116072644479573, 0.00041370646795257926, 0.00029812235152348876, 0.00023304842761717737, 0.00057721859775483608, 0.00043569065746851265, 0.00025439131422899663, 0.00021997503063175827, 0.00010636570368660614, 0.00050193397328257561, 0.00017253364785574377, 0.00058726599672809243, 0.00013829980161972344, 0.00039659114554524422, 0.00066672463435679674, 0.00026394089218229055, 0.00062466092640534043, 0.00014563581498805434, 0.00017479699454270303, 0.00019038593745790422, 0.00025020184693858027, 0.00025501102209091187, 0.00018510727386455983, 0.00017696505528874695, 0.00035009364364668727, 0.00024549392401240766, 0.00041232266812585294, 0.0005157979903742671, 0.00020174984820187092, 0.00022438399901147932, 0.00029082092805765569, 0.00011921954137505963, 0.00038225637399591506, 0.00018248868582304567, 0.00043000347795896232, 0.00046859646681696177, 0.00015390836051665246, 0.00019877278828062117, 0.00034617047640495002, 0.00040080369217321277, 0.00015822952263988554, 0.0002052988565992564, 0.00041529946611262858, 0.00029554302454926074, 0.0002296092570759356, 0.00020427897106856108, 0.00025755370734259486, 0.00042564028990454972, 0.00030253361910581589, 0.00026347505627200007, 0.00019826245261356235, 0.0005187409115023911, 0.00013847665104549378, 0.00037227926077321172, 0.0001162059634225443, 0.00043375178938731551, 0.00034506167867220938, 0.00038131972542032599, 0.00020400735957082361, 0.00045874353963881731, 0.00020993109501432627, 0.00021858810214325786, 0.00033006008015945554, 0.00028020597528666258, 0.00014980130072217435, 0.00048171202070079744, 0.00015081149467732757, 0.00053012656280770898, 8.6386236944235861e-05, 0.00016731346840970218, 0.00027348744333721697, 0.00019645100110210478, } };
const TfArray<96, int> quant18_zero = { 96, { 0,0,0,0,0,0,0,0,0,0,0,0,0,0,0,0,0,0,0,0,0,0,0,0,0,0,0,0,0,0,0,0,0,0,0,0,0,0,0,0,0,0,0,0,0,0,0,0,0,0,0,0,0,0,0,0,0,0,0,0,0,0,0,0,0,0,0,0,0,0,0,0,0,0,0,0,0,0,0,0,0,0,0,0,0,0,0,0,0,0,0,0,0,0,0,0 } };
const TfLiteAffineQuantization quant18 = { (TfLiteFloatArray*)&quant18_scale, (TfLiteIntArray*)&quant18_zero, 0 };
const MODEL_SECTION(EI_MODEL_SECTION) ALIGN(16) int8_t tensor_data19[96*1*1*16] = { 
  /* [0][0][][] */ 38,-8,110,91,70,-35,30,-34,127,-11,-77,-92,7,73,-37,-95, 
  /* [1][0][][] */ 43,77,-34,9,106,-16,6,25,76,34,-47,127,-15,-37,89,-42, 
  /* [2][0][][] */ 23,-42,-13,-2,-33,20,-68,35,-79,-73,35,51,24,-127,85,-93, 
  /* [3][0][][] */ 117,89,-3,13,-127,-28,-50,-23,-26,-4,96,-95,-39,60,-25,-19, 
  /* [4][0][][] */ 1,-21,25,13,-22,35,-39,28,-54,-39,2,1,17,-127,63,6, 
  /* [5][0][][] */ 92,-35,3,-15,-26,-127,-19,12,-4,-2,-86,-2,-5,2,25,52, 
  /* [6][0][][] */ -51,-47,-18,35,-26,-24,-59,15,-127,-66,-68,-1,16,17,19,86, 
  /* [7][0][][] */ -38,-5,-127,50,54,-115,-36,42,19,-25,2,-13,2,18,-43,-3, 
  /* [8][0][][] */ 20,-41,-20,-3,23,31,-45,-56,-1,11,-60,23,-127,14,-9,12, 
  /* [9][0][][] */ 13,-96,53,127,-27,37,10,-57,104,-64,18,-15,-15,80,-89,59, 
  /* [10][0][][] */ -76,-127,30,-40,94,53,27,79,67,-117,-111,81,110,-71,-55,95, 
  /* [11][0][][] */ 50,-11,-127,43,59,39,-26,57,-9,-38,-21,17,-7,28,-22,-5, 
  /* [12][0][][] */ 77,-96,-89,-10,14,-71,-88,-58,46,-33,-119,-27,-127,10,-6,-6, 
  /* [13][0][][] */ 84,-77,21,-31,127,14,-30,-121,67,-5,3,12,9,8,51,2, 
  /* [14][0][][] */ -36,29,-82,-60,49,-127,45,-59,35,25,-1,-78,-7,76,30,22, 
  /* [15][0][][] */ 21,4,97,48,46,-34,-28,13,41,-61,-79,9,-127,-22,-48,75, 
  /* [16][0][][] */ -127,56,4,16,4,94,28,46,-15,22,106,-12,-15,-19,4,-20, 
  /* [17][0][][] */ -4,-5,-16,-26,-46,30,45,74,-15,127,-15,13,-2,60,70,-15, 
  /* [18][0][][] */ 11,123,-29,-42,-17,-5,65,-82,-8,127,-50,111,9,-67,62,-93, 
  /* [19][0][][] */ 4,-18,64,13,-13,41,4,30,17,-5,-47,-8,-127,16,3,35, 
  /* [20][0][][] */ 84,-85,-5,-90,-32,46,10,-60,-62,11,-127,-21,11,9,31,-6, 
  /* [21][0][][] */ 40,-21,127,52,-19,127,45,17,0,69,-76,9,-34,125,-43,16, 
  /* [22][0][][] */ 16,20,20,-1,-35,10,26,127,5,-7,20,23,4,16,25,37, 
  /* [23][0][][] */ -2,15,-65,10,7,-127,2,33,-1,-19,-16,-2,-79,5,11,41, 
  /* [24][0][][] */ 30,-47,5,-64,45,9,-27,-12,20,30,64,79,-33,70,127,33, 
  /* [25][0][][] */ -127,-87,-44,25,41,-9,27,-47,-30,45,-108,-5,16,28,73,37, 
  /* [26][0][][] */ 6,22,43,3,9,17,-35,65,-72,-49,-27,7,26,-127,21,-21, 
  /* [27][0][][] */ -92,38,-76,29,21,4,8,1,31,-30,127,19,-27,-12,7,-15, 
  /* [28][0][][] */ -23,6,31,44,7,8,28,66,30,-3,-12,2,-127,-8,5,27, 
  /* [29][0][][] */ -7,55,8,-34,54,0,26,-35,-127,23,-44,6,-2,37,-104,2, 
  /* [30][0][][] */ -3,2,-127,-14,29,-25,4,16,-23,3,-22,-14,-15,-41,-8,-4, 
  /* [31][0][][] */ 127,-25,-97,-18,20,-14,-36,49,-13,-13,-48,-53,1,-6,-44,25, 
  /* [32][0][][] */ -116,25,59,55,9,115,13,52,21,-9,127,26,-44,64,31,-4, 
  /* [33][0][][] */ -6,14,127,-9,-52,44,-6,-62,6,33,-15,38,-17,11,61,18, 
  /* [34][0][][] */ -25,-70,-36,-127,-8,-18,17,-43,-52,-63,-17,-111,-5,-4,87,55, 
  /* [35][0][][] */ -16,-37,45,50,53,-23,18,-17,-121,36,-12,23,-15,127,-73,-43, 
  /* [36][0][][] */ -79,19,-6,8,-17,41,42,84,-6,46,127,-11,-12,32,46,-26, 
  /* [37][0][][] */ -33,48,127,-14,-42,-39,29,-49,23,38,-39,1,8,-78,91,-33, 
  /* [38][0][][] */ 15,-31,-27,28,15,-27,-42,32,-23,7,109,-11,127,30,2,20, 
  /* [39][0][][] */ -26,-20,-73,-32,-56,-71,65,127,-16,24,11,-91,25,42,59,80, 
  /* [40][0][][] */ 68,-22,26,-2,-7,83,-30,-16,-4,-23,-5,0,127,6,-17,-15, 
  /* [41][0][][] */ -19,-12,-36,-127,5,11,-26,-61,-5,-29,30,-46,1,-22,-4,25, 
  /* [42][0][][] */ 75,19,43,124,-127,-1,-117,15,-79,-80,42,-46,6,124,-34,21, 
  /* [43][0][][] */ 4,117,-26,127,12,28,53,-92,-41,107,9,14,29,-49,62,38, 
  /* [44][0][][] */ -26,-23,-127,-23,51,81,-23,65,-45,-42,76,-14,13,-51,-52,4, 
  /* [45][0][][] */ 20,35,-5,-127,-42,30,49,-25,-19,33,-17,49,20,-115,86,-50, 
  /* [46][0][][] */ 6,40,45,-8,-2,24,-30,46,23,-30,-19,8,2,127,40,-16, 
  /* [47][0][][] */ 16,-45,11,-58,-55,8,-73,61,-28,-38,30,32,9,-127,60,23, 
  /* [48][0][][] */ 4,-1,23,-127,-9,-27,-13,2,7,-37,25,-7,-1,60,-4,77, 
  /* [49][0][][] */ 59,-13,40,127,78,21,1,55,-86,-3,21,54,-9,44,113,-16, 
  /* [50][0][][] */ -30,-15,73,17,-5,125,3,-65,57,-2,127,3,74,14,-25,-39, 
  /* [51][0][][] */ 23,47,34,42,10,33,-46,28,71,10,-2,127,28,55,27,-60, 
  /* [52][0][][] */ -15,51,127,10,7,-31,8,-32,-26,0,-7,41,8,81,-85,6, 
  /* [53][0][][] */ -28,-6,-41,-127,-35,17,15,-34,-8,9,29,-2,6,-35,48,16, 
  /* [54][0][][] */ 0,-7,-37,-26,25,4,-5,19,80,-11,-27,-27,-17,127,11,28, 
  /* [55][0][][] */ -35,-21,-37,0,-12,-26,-7,-127,20,-51,0,-4,-14,-60,-1,-17, 
  /* [56][0][][] */ 49,85,80,71,24,-16,-17,127,10,-52,24,-35,117,-23,-49,51, 
  /* [57][0][][] */ 115,6,127,-45,-77,-59,-28,-79,-8,-4,-77,-3,27,-79,35,-29, 
  /* [58][0][][] */ 58,61,28,61,-48,-11,-16,18,-12,29,127,-60,-56,-40,-39,-69, 
  /* [59][0][][] */ 127,-26,-8,6,-61,-20,20,12,-24,35,-126,-21,26,-14,7,18, 
  /* [60][0][][] */ -127,53,5,-24,-5,-16,26,31,-34,-8,97,3,-17,-4,38,-32, 
  /* [61][0][][] */ -109,27,11,21,24,31,-61,-57,127,-82,109,-21,71,-14,-82,-84, 
  /* [62][0][][] */ -14,0,-83,61,31,79,3,127,-2,-52,-42,40,-94,-1,-105,-14, 
  /* [63][0][][] */ -59,1,127,-39,-63,-53,39,-25,4,33,-13,8,3,-54,54,30, 
  /* [64][0][][] */ 45,35,-69,-2,38,-25,70,-114,-5,69,-16,-17,7,-127,-4,65, 
  /* [65][0][][] */ -9,35,54,-4,62,36,-18,-127,-68,-82,-49,-55,-11,-48,91,5, 
  /* [66][0][][] */ -127,-12,10,13,-20,13,31,-20,-60,-29,-91,62,44,29,31,62, 
  /* [67][0][][] */ -5,-85,44,115,-7,-4,-31,81,61,23,7,1,-1,-6,-127,-43, 
  /* [68][0][][] */ 21,0,-1,127,-50,-15,25,3,-59,29,-6,1,-7,-59,6,-25, 
  /* [69][0][][] */ 60,76,-9,127,39,23,69,-93,9,82,12,97,10,-30,7,-8, 
  /* [70][0][][] */ -29,-103,-1,-85,62,8,71,67,60,2,62,-74,43,101,42,127, 
  /* [71][0][][] */ 30,69,-9,87,51,-127,-42,93,52,-105,7,18,5,-53,-42,49, 
  /* [72][0][][] */ -127,-64,-47,36,4,24,-13,11,-71,-15,-84,36,73,-13,9,101, 
  /* [73][0][][] */ -22,-4,-10,91,26,4,-7,10,108,16,-33,-2,9,127,-100,-42, 
  /* [74][0][][] */ 71,-7,-16,-24,-23,-6,86,-21,-52,28,-93,59,-127,-36,66,39, 
  /* [75][0][][] */ -26,-23,-23,127,-13,9,6,-12,-53,32,-13,-19,8,-36,-19,-41, 
  /* [76][0][][] */ 15,-17,-28,48,34,1,-9,-127,17,-109,-21,-5,-21,-16,22,-35, 
  /* [77][0][][] */ 127,-42,53,47,-67,-2,-54,-4,84,10,1,32,37,19,-87,39, 
  /* [78][0][][] */ -60,-8,79,3,6,-13,-57,50,5,-45,-84,-4,37,127,23,31, 
  /* [79][0][][] */ -6,36,57,26,50,57,-52,-67,6,-61,92,-22,127,-31,-28,-46, 
  /* [80][0][][] */ -127,-53,-76,54,2,21,-8,0,-75,4,-119,-12,26,-49,-38,44, 
  /* [81][0][][] */ 76,-41,-65,84,127,101,-8,-25,47,-92,-16,-104,-10,30,-93,45, 
  /* [82][0][][] */ 127,116,-11,43,-127,-17,-79,12,-64,-7,114,-17,-58,103,-8,-44, 
  /* [83][0][][] */ 127,42,41,-21,11,-32,14,34,25,27,93,-42,-65,-31,-9,-88, 
  /* [84][0][][] */ 12,-13,-76,-30,2,17,-17,-127,-17,-30,43,-15,-1,-14,41,-8, 
  /* [85][0][][] */ -55,-34,-100,-71,-16,-26,119,127,-11,114,9,-61,1,117,125,-27, 
  /* [86][0][][] */ 79,-27,1,10,3,-46,5,-41,-7,-8,-127,11,18,8,-5,20, 
  /* [87][0][][] */ -13,33,36,-41,-4,82,-54,67,-15,-72,20,9,-16,-127,16,-26, 
  /* [88][0][][] */ -23,3,-56,-33,42,10,-41,-127,-17,-38,-13,12,-19,-56,28,-3, 
  /* [89][0][][] */ 47,-25,9,-127,31,-29,-70,100,68,-94,15,22,-6,13,19,32, 
  /* [90][0][][] */ -26,25,-40,72,41,-7,127,-117,85,118,-13,42,-7,50,32,-53, 
  /* [91][0][][] */ 30,-21,-58,12,22,-127,-24,-13,11,10,-63,-4,49,-27,18,-8, 
  /* [92][0][][] */ 48,15,117,92,62,37,17,80,-24,66,-105,-19,-4,127,-18,-15, 
  /* [93][0][][] */ 110,-58,-35,9,-34,-74,-10,18,-11,18,-127,-13,-20,23,-3,37, 
  /* [94][0][][] */ 14,-31,40,99,87,-19,5,50,14,1,-8,47,3,127,-37,-80, 
  /* [95][0][][] */ -108,32,22,66,25,55,36,15,17,13,127,7,-23,46,-23,-50, 
};
const TfArray<4, int> tensor_dimension19 = { 4, { 96,1,1,16 } };
const TfArray<96, float> quant19_scale = { 96, { 0.00047535306657664478, 0.0010110863950103521, 0.00058938615256920457, 0.0027880785055458546, 0.0010282155126333237, 0.00061962316976860166, 0.00085234979633241892, 0.0018871313659474254, 0.0014554676599800587, 0.00037239782977849245, 0.00061824230942875147, 0.0013448388781398535, 0.0012441470753401518, 0.00064566143555566669, 0.00076679798075929284, 0.0010667950846254826, 0.00098560680635273457, 0.00057209830265492201, 0.00091890903422608972, 0.0016951349098235369, 0.0014967599418014288, 0.00030548454378731549, 0.0012564188800752163, 0.00071125832619145513, 0.00087314948905259371, 0.0012847726466134191, 0.00092582410434260964, 0.00072373595321550965, 0.0017925624269992113, 0.0013530448777601123, 0.00079001666745170951, 0.00068313628435134888, 0.00033032053033821285, 0.0015587647212669253, 0.00053580623352900147, 0.0018237647600471973, 0.00042949241469614208, 0.0012316206702962518, 0.002070524962618947, 0.00081967306323349476, 0.0019398953299969435, 0.00045227454393170774, 0.00054283509962260723, 0.00059124681865796447, 0.00077700614929199219, 0.00079194112913683057, 0.00057485385332256556, 0.00054956803796812892, 0.0010872218990698457, 0.00076238560723140836, 0.0012804751750081778, 0.0016018195310607553, 0.00062653765780851245, 0.0006968284142203629, 0.00090314942644909024, 0.00037023835466243327, 0.0011871038004755974, 0.00056672177743166685, 0.0013353832764551044, 0.0014552344800904393, 0.00047796510625630617, 0.00061729236040264368, 0.0010750384535640478, 0.0012447028420865536, 0.0004913845332339406, 0.00063755916198715568, 0.0012897197157144547, 0.00091781403170898557, 0.00071305554592981935, 0.00063439190853387117, 0.00079983752220869064, 0.0013218333479017019, 0.00093952339375391603, 0.00081822637002915144, 0.00061570748221129179, 0.0016109588323161006, 0.0004300416330806911, 0.0011561197461560369, 0.00036087963962927461, 0.0013470237608999014, 0.0010715950047597289, 0.0011841950472444296, 0.00063354842131957412, 0.0014246359933167696, 0.00065194466151297092, 0.00067882915027439594, 0.001025007339194417, 0.00087018456542864442, 0.00046521055628545582, 0.0014959650579839945, 0.00046834771637804806, 0.00164631730876863, 0.00026827395777218044, 0.00051959487609565258, 0.00084932002937421203, 0.00061008200282230973, } };
const TfArray<96, int> quant19_zero = { 96, { 0,0,0,0,0,0,0,0,0,0,0,0,0,0,0,0,0,0,0,0,0,0,0,0,0,0,0,0,0,0,0,0,0,0,0,0,0,0,0,0,0,0,0,0,0,0,0,0,0,0,0,0,0,0,0,0,0,0,0,0,0,0,0,0,0,0,0,0,0,0,0,0,0,0,0,0,0,0,0,0,0,0,0,0,0,0,0,0,0,0,0,0,0,0,0,0 } };
const TfLiteAffineQuantization quant19 = { (TfLiteFloatArray*)&quant19_scale, (TfLiteIntArray*)&quant19_zero, 0 };
const MODEL_SECTION(EI_MODEL_SECTION) ALIGN(16) int32_t tensor_data20[16] = { -31069, 2534, -1832, -9558, 62, -12208, -9519, -45763, -5646, 26846, 34017, -15954, -1766, -21927, 41474, -34681, };
const TfArray<1, int> tensor_dimension20 = { 1, { 16 } };
const TfArray<16, float> quant20_scale = { 16, { 0.00077479577157646418, 0.00077832466922700405, 0.0011543356813490391, 0.00094163184985518456, 0.00094716507010161877, 0.00082138215657323599, 0.001061969087459147, 0.00048748074914328754, 0.00048384556430391967, 0.00058406038442626595, 0.00081997219240292907, 0.00062420638278126717, 0.00104103097692132, 0.0011144981253892183, 0.00059273542137816548, 0.00051945308223366737, } };
const TfArray<16, int> quant20_zero = { 16, { 0,0,0,0,0,0,0,0,0,0,0,0,0,0,0,0 } };
const TfLiteAffineQuantization quant20 = { (TfLiteFloatArray*)&quant20_scale, (TfLiteIntArray*)&quant20_zero, 0 };
const MODEL_SECTION(EI_MODEL_SECTION) ALIGN(16) int8_t tensor_data21[16*1*1*48] = { 
  /* [0][0][][] */ -16,-6,-23,5,16,-10,9,98,-52,16,34,-7,24,-24,-6,9,25,-18,-5,-11,63,-9,19,127,-13,75,-3,-19,30,-16,23,-31,-16,53,21,-39,13,42,11,-15,-93,-32,21,46,34,31,-114,-34, 
  /* [1][0][][] */ -32,-13,12,7,-42,11,3,60,-64,-38,-6,-51,-30,-10,6,-12,-20,110,-13,9,-2,3,-24,-16,28,-25,10,25,-32,-93,-44,15,-31,-26,33,-2,6,-41,1,27,-21,-26,127,5,13,-3,7,-8, 
  /* [2][0][][] */ -22,-17,-20,-37,-5,-69,2,-22,0,9,-1,21,6,4,-16,7,-4,-27,-26,-18,-10,3,-4,-127,-9,77,-16,10,2,-25,2,-13,-14,52,17,1,25,8,32,-5,-40,13,-21,-7,-8,-13,11,-2, 
  /* [3][0][][] */ -5,30,7,-29,-4,1,3,-3,-21,-2,4,40,-127,16,-4,-7,-2,6,-15,-1,-27,8,7,17,-12,-5,1,27,-8,19,6,13,5,0,14,16,-12,23,40,12,10,8,24,-35,4,-9,5,14, 
  /* [4][0][][] */ 41,-30,11,8,21,32,18,-22,-30,8,-7,-23,7,21,-3,16,11,3,-78,7,-9,15,13,74,5,-28,7,51,12,-72,19,2,17,-36,24,-127,10,38,-2,23,-16,26,7,-23,-8,-19,2,7, 
  /* [5][0][][] */ 26,4,-20,58,0,-4,2,31,-2,2,50,9,2,63,-6,-6,-27,24,29,1,8,8,7,-28,-1,-44,0,-16,-3,-6,8,6,67,-127,1,29,-13,-14,22,4,-92,62,17,-11,-8,-8,-98,-16, 
  /* [6][0][][] */ 27,0,13,8,-9,-7,9,-17,2,0,-2,8,-17,0,11,3,1,-7,127,14,4,9,17,-31,6,-4,26,-14,-9,0,-5,8,-2,-9,29,-35,-3,-33,63,10,1,-8,-3,14,-7,5,8,-8, 
  /* [7][0][][] */ -45,-5,-10,27,-15,90,-16,45,-1,38,9,127,73,6,-6,-3,-3,-18,-9,-22,-26,-4,-25,61,0,-34,-52,-20,-15,-8,-9,-15,10,-1,-27,0,7,-59,111,-4,14,37,-62,-72,12,-13,7,-4, 
  /* [8][0][][] */ -60,-41,1,2,-16,12,0,35,-9,-71,16,44,39,6,1,12,-5,62,-30,11,-51,26,-11,-22,-1,7,14,54,-12,127,-7,27,-3,12,-16,-126,-107,64,45,24,16,7,115,-32,5,33,21,24, 
  /* [9][0][][] */ -36,-9,-7,30,6,-32,1,5,66,-41,18,65,-61,4,20,-7,-10,16,-41,-34,43,7,-10,-28,-9,9,42,-22,13,14,9,-8,-3,3,72,-111,-17,-127,-95,5,-41,30,42,8,-5,12,-1,-55, 
  /* [10][0][][] */ -19,-8,-36,-127,45,84,9,-15,-8,27,19,6,48,-48,-34,22,34,-44,55,-23,35,-20,32,52,-55,-102,5,-34,48,32,51,-31,-30,-72,29,-1,19,-42,4,-33,-29,-67,-10,11,21,16,17,-39, 
  /* [11][0][][] */ 5,67,-13,63,35,-69,-87,-21,0,69,-1,-4,-3,79,-8,-89,22,41,16,-8,-54,-108,17,5,25,-31,18,-21,52,-46,28,-89,45,-12,-34,-93,113,16,5,-127,0,68,110,-77,-11,-55,31,32, 
  /* [12][0][][] */ 127,-11,-36,12,4,21,5,103,22,-5,-54,-22,-4,10,-14,-12,-8,0,-15,2,2,4,7,17,-10,17,-4,4,-7,12,2,8,16,-76,-5,18,-13,-20,-33,-6,-16,-80,3,-122,-43,-11,80,-4, 
  /* [13][0][][] */ 4,3,3,6,4,-11,2,1,2,6,6,24,-8,7,5,0,4,1,9,2,12,-10,5,-4,2,2,18,127,14,2,7,-1,6,3,-36,20,4,-8,9,-16,-15,-3,1,1,-7,0,-7,-18, 
  /* [14][0][][] */ 56,-29,43,-62,60,23,44,-101,-53,-64,-10,127,-74,12,74,15,59,19,-58,61,16,5,64,-20,25,65,-41,-127,13,-43,56,65,-12,73,-122,-44,-36,45,89,-10,-45,-3,55,3,-2,6,15,-22, 
  /* [15][0][][] */ -2,-62,-74,-38,60,22,79,-56,-1,10,-30,-46,76,-4,-94,66,71,47,79,-87,-107,-37,48,-14,-80,36,29,50,45,33,55,-48,10,69,97,127,-17,-100,-13,-38,88,52,112,-45,-8,-19,-21,68, 
};
const TfArray<4, int> tensor_dimension21 = { 4, { 16,1,1,48 } };
const TfArray<16, float> quant21_scale = { 16, { 0.032928820699453354, 0.033078797161579132, 0.049059264361858368, 0.040019351989030838, 0.040254514664411545, 0.03490874171257019, 0.045133687555789948, 0.020717931911349297, 0.020563436672091484, 0.024822566658258438, 0.034848816692829132, 0.026528771966695786, 0.044243816286325455, 0.047366168349981308, 0.025191254913806915, 0.02207675576210022, } };
const TfArray<16, int> quant21_zero = { 16, { 0,0,0,0,0,0,0,0,0,0,0,0,0,0,0,0 } };
const TfLiteAffineQuantization quant21 = { (TfLiteFloatArray*)&quant21_scale, (TfLiteIntArray*)&quant21_zero, 0 };
const MODEL_SECTION(EI_MODEL_SECTION) ALIGN(16) int32_t tensor_data22[48] = { 5168, 40179, -906, 35703, 4050, 122454, -2250, 49014, 1505, 32162, 24056, 155, 2473, 29355, -1791, -1436, -510, -2347, 649, -2490, 135, -3756, -1312, -19568, -4411, 46217, 124042, 108296, 1908, 10056, -999, 59, 23937, 447, 46048, 1040, 71683, 4519, 60654, 2029, 1614, 62301, -195, 3759, 54347, -1022, 3792, 52918, };
const TfArray<1, int> tensor_dimension22 = { 1, { 48 } };
